~o
<STREAMINFO> 1 39
<VECSIZE> 39<NULLD><MFCC_E_D_A_Z><DIAGC>
~s "silst"
<NUMMIXES> 7
<MIXTURE> 1 2.591244e-01
<MEAN> 39
 -2.267890e+00 -2.760731e+00 1.991117e+00 3.223012e+00 4.191363e+00 4.232579e+00 2.630717e+00 2.716351e+00 3.297730e+00 2.194989e+00 1.889993e+00 9.720703e-01 3.984608e-02 -2.220767e-01 2.289415e-01 2.126739e-01 2.028890e-01 1.002727e-01 1.553888e-01 6.681716e-02 5.111928e-02 9.105979e-02 -4.567817e-02 -7.405704e-02 -1.234901e-01 -1.948458e-02 2.433494e-01 2.403297e-01 1.215140e-01 1.006389e-01 -2.733755e-02 -4.390072e-02 -8.769834e-02 -5.419469e-02 -3.350867e-02 -5.368970e-02 -2.429512e-02 4.170496e-02 2.480783e-02
<VARIANCE> 39
 1.316283e+01 4.360733e+01 2.575230e+01 2.963669e+01 2.780897e+01 3.078698e+01 2.959160e+01 4.062125e+01 3.254639e+01 3.008132e+01 3.101936e+01 1.999995e+01 1.685053e-02 5.799062e-01 9.557584e-01 1.075882e+00 1.509451e+00 1.711829e+00 2.051007e+00 1.962020e+00 2.394172e+00 2.335433e+00 2.386085e+00 2.081604e+00 1.826915e+00 1.375499e-03 1.843905e-01 2.927632e-01 2.628273e-01 2.794227e-01 3.811034e-01 4.321561e-01 4.127614e-01 5.565338e-01 5.506074e-01 4.755679e-01 4.153934e-01 3.699223e-01 4.853045e-04
<GCONST> 8.725881e+01
<MIXTURE> 2 1.652802e-01
<MEAN> 39
 -4.284435e+00 -6.491019e-01 4.949936e+00 5.597821e+00 4.493270e+00 6.881644e+00 3.298041e+00 5.157891e+00 2.994160e+00 4.074751e+00 3.027129e+00 1.046052e+00 2.190935e-01 -2.671511e+00 -1.236493e+00 -8.961141e-01 1.203813e+00 1.292900e+00 2.264051e+00 2.746445e+00 3.194651e+00 2.030445e+00 1.865511e+00 6.711779e-01 1.630543e-01 -1.079268e-01 4.994425e-01 5.206197e-01 -2.398340e-01 -3.985865e-01 -4.674994e-01 -6.108330e-01 -4.145555e-01 -3.929376e-01 -3.092577e-01 -4.762463e-01 -2.443529e-01 -2.183873e-01 3.873754e-02
<VARIANCE> 39
 1.845933e+01 3.370192e+01 1.461814e+01 2.502271e+01 2.181282e+01 2.770662e+01 3.006197e+01 3.141724e+01 3.471952e+01 2.906464e+01 3.464457e+01 2.765484e+01 2.291846e-02 1.652722e+00 2.024936e+00 2.208356e+00 2.027663e+00 2.616822e+00 2.994873e+00 2.899494e+00 2.801625e+00 3.415856e+00 3.328464e+00 3.711003e+00 3.840709e+00 2.167248e-03 2.544332e-01 3.980038e-01 3.092350e-01 4.504737e-01 4.057195e-01 4.650676e-01 5.230041e-01 6.226175e-01 6.396693e-01 6.161743e-01 5.090387e-01 5.027954e-01 3.282182e-04
<GCONST> 9.572101e+01
<MIXTURE> 3 1.271677e-01
<MEAN> 39
 -2.785676e+00 -1.945172e+00 3.860773e+00 5.984888e+00 5.525865e+00 5.824767e+00 4.428011e+00 4.624259e+00 4.323336e+00 4.245516e+00 3.148137e+00 1.911074e+00 1.009241e-01 7.911249e-01 9.757551e-01 -1.432114e-01 -2.496419e-01 -6.471687e-01 -7.749171e-01 -6.994416e-01 -6.818238e-01 -5.417895e-01 -1.617641e-02 -1.450321e-01 7.542884e-02 8.276386e-02 4.680314e-01 1.616053e-01 -3.469201e-01 -5.404106e-01 -4.592172e-01 -4.545429e-01 -3.631729e-01 -3.524835e-01 -4.565541e-01 -2.364812e-01 -1.487444e-01 8.930419e-03 4.073515e-02
<VARIANCE> 39
 1.733467e+01 4.400250e+01 3.230652e+01 2.928792e+01 3.058961e+01 3.448873e+01 3.042028e+01 3.636813e+01 3.352621e+01 2.551258e+01 2.233155e+01 2.093692e+01 3.559054e-02 3.152374e+00 5.255897e+00 3.607003e+00 3.813230e+00 3.891535e+00 3.809597e+00 4.839128e+00 4.501991e+00 3.987265e+00 3.079176e+00 3.427963e+00 2.639990e+00 7.366940e-03 4.169604e-01 7.196934e-01 4.384212e-01 4.589887e-01 4.791806e-01 5.721650e-01 6.765246e-01 6.329237e-01 6.491610e-01 5.333933e-01 4.653617e-01 4.435739e-01 8.804806e-04
<GCONST> 1.050836e+02
<MIXTURE> 4 8.416739e-02
<MEAN> 39
 -1.279962e+00 1.151368e-01 7.759895e-01 3.080500e-01 1.215190e+00 2.573824e+00 -8.196036e-01 1.575940e+00 3.395217e+00 -5.928189e-01 -3.782707e-01 -4.228249e-01 -6.548841e-02 1.987545e-02 8.299658e-02 1.079009e-01 3.738106e-02 -1.573203e-02 -1.709376e-02 6.431127e-02 1.523178e-01 -6.574567e-02 4.176497e-02 -6.408282e-02 -6.352489e-02 -1.537688e-03 -3.829776e-02 -1.322790e-02 4.882957e-02 8.115025e-02 6.835168e-02 5.022036e-02 6.248463e-02 2.309139e-02 -6.954724e-02 8.351214e-02 1.272259e-01 -4.055485e-03 4.608004e-03
<VARIANCE> 39
 5.577829e+00 2.712766e+01 1.089728e+01 8.911599e+00 1.188697e+01 1.764914e+01 1.729620e+01 2.153411e+01 1.430106e+01 2.006603e+01 1.664055e+01 1.506834e+01 7.636556e-03 1.956441e-01 5.811496e-01 5.443177e-01 6.212495e-01 9.147148e-01 8.792068e-01 1.255111e+00 1.300284e+00 1.284655e+00 1.332253e+00 1.266817e+00 1.043781e+00 4.755436e-05 6.824386e-02 1.010839e-01 1.171403e-01 1.375749e-01 1.679832e-01 2.018888e-01 2.496877e-01 2.696487e-01 2.737388e-01 2.572020e-01 2.481827e-01 2.368524e-01 4.615484e-05
<GCONST> 5.606679e+01
<MIXTURE> 5 1.004727e-01
<MEAN> 39
 -2.494488e+00 -3.487002e+00 2.898776e+00 2.881129e+00 3.808029e+00 4.080001e+00 4.113560e+00 3.946113e+00 2.573564e+00 2.918997e+00 3.784261e+00 2.779310e+00 2.300789e-01 -3.691924e-01 3.553302e-01 -3.433619e-02 -3.868537e-02 -1.358665e-01 3.790778e-02 -3.406208e-03 1.373511e-01 2.896817e-01 2.813653e-01 2.365840e-01 -5.515540e-02 1.262235e-02 2.975188e-01 3.283478e-01 -7.643318e-02 -2.693992e-02 -1.475212e-01 -6.202317e-02 -2.220501e-01 -1.442576e-01 -7.546534e-02 -1.084632e-01 -3.365550e-01 -2.373057e-01 1.882986e-02
<VARIANCE> 39
 2.932362e+01 5.504138e+01 6.252665e+01 4.973026e+01 6.176662e+01 8.547773e+01 7.735634e+01 7.301709e+01 6.453889e+01 5.183721e+01 7.216237e+01 4.383920e+01 3.215648e-02 2.885194e+00 2.897940e+00 3.192976e+00 3.912702e+00 3.849215e+00 4.618418e+00 4.625842e+00 4.455661e+00 4.570002e+00 4.049347e+00 4.527186e+00 3.749376e+00 7.070566e-03 7.422678e-01 7.844949e-01 8.689082e-01 1.018197e+00 1.307820e+00 1.420080e+00 1.385572e+00 1.333987e+00 1.229508e+00 9.855389e-01 1.429305e+00 9.649926e-01 1.491724e-03
<GCONST> 1.229807e+02
<MIXTURE> 6 1.661029e-01
<MEAN> 39
 -1.575913e+00 -3.357876e+00 2.281255e-01 1.229571e+00 2.378053e+00 2.407787e+00 2.415642e+00 2.897889e+00 4.058302e+00 2.173156e+00 1.979436e+00 1.398444e+00 1.824787e-01 -1.686943e+00 -1.562819e+00 -1.216484e+00 -7.495212e-01 -4.543468e-01 -1.146230e-01 2.461299e-01 5.839569e-01 6.135337e-01 6.232585e-01 7.727258e-01 4.524409e-01 -1.108366e-01 4.065287e-01 5.047830e-01 2.909628e-01 1.774949e-01 3.951120e-02 -7.241055e-02 -2.041307e-01 -3.031585e-01 -2.660791e-01 -2.009439e-01 -2.522663e-01 -1.558626e-01 2.942937e-02
<VARIANCE> 39
 1.474890e+01 4.666783e+01 2.763571e+01 3.362768e+01 3.852050e+01 3.261094e+01 3.952882e+01 3.964888e+01 3.627896e+01 3.597415e+01 3.314136e+01 2.684668e+01 2.640985e-02 7.596129e-01 1.277898e+00 1.663490e+00 1.861361e+00 2.179111e+00 2.395720e+00 2.331860e+00 2.992132e+00 3.111848e+00 2.725361e+00 2.430385e+00 2.389812e+00 1.239546e-03 1.810063e-01 2.554832e-01 2.936207e-01 3.385253e-01 4.402170e-01 4.559042e-01 4.702925e-01 5.190833e-01 5.140082e-01 5.356625e-01 5.178050e-01 4.425260e-01 3.508497e-04
<GCONST> 9.265277e+01
<MIXTURE> 7 9.767625e-02
<MEAN> 39
 -2.670438e+00 1.837566e+00 4.013689e+00 4.956031e+00 3.342835e+00 5.267505e+00 3.104224e+00 5.477938e+00 3.943164e+00 2.565672e+00 3.867596e+00 1.924119e+00 -9.191883e-02 1.142923e-01 2.385555e-01 6.125726e-02 -1.326634e-01 -1.523380e-01 1.236276e-01 7.192749e-02 2.332105e-02 1.133735e-02 -7.505156e-02 8.959010e-03 6.234141e-02 -1.996079e-03 -1.380735e-02 -4.210591e-02 -1.374721e-02 -3.090158e-02 -1.923211e-02 -8.803648e-03 -4.192928e-03 -2.778342e-02 1.955892e-02 2.916302e-02 -5.804403e-02 -5.736586e-03 7.743859e-04
<VARIANCE> 39
 7.493473e+00 3.286533e+01 1.451447e+01 1.537420e+01 2.190762e+01 2.150419e+01 1.622851e+01 2.073101e+01 1.433329e+01 1.821375e+01 1.492338e+01 1.548208e+01 3.253077e-03 2.002268e-01 5.276265e-01 4.905929e-01 7.752777e-01 1.228868e+00 1.248608e+00 1.174471e+00 1.215547e+00 1.185086e+00 1.405132e+00 1.211193e+00 1.283630e+00 3.754082e-05 3.087351e-02 8.021798e-02 8.716464e-02 1.453477e-01 2.355780e-01 2.548770e-01 2.245300e-01 2.304189e-01 2.255127e-01 2.736988e-01 2.477158e-01 2.601733e-01 5.218607e-06
<GCONST> 5.434113e+01
~h "#i"
<BEGINHMM>
<NUMSTATES> 16
<STATE> 2
<NUMMIXES> 6
<MIXTURE> 1 5.998988e-02
<MEAN> 39
 5.778175e-02 2.662614e+00 -3.834819e+00 -5.849621e+00 -3.516973e+00 -1.185584e+00 4.128450e+00 4.164766e+00 6.250381e+00 3.174051e+00 4.840191e+00 1.174215e+00 5.813334e-01 -2.301298e-01 1.946148e+00 -8.132952e-01 4.625383e-01 -9.351698e-01 -1.546637e+00 -1.367589e+00 -6.029849e-01 -1.130872e+00 3.588588e-01 8.376995e-03 9.802865e-03 3.848006e-02 6.046624e-02 8.604085e-02 3.126368e-01 4.557672e-01 -6.965125e-03 1.411528e-01 -4.715924e-01 -1.400713e-01 -4.462790e-01 -9.121534e-02 -4.246142e-01 -2.595351e-02 5.436021e-03
<VARIANCE> 39
 1.398914e+01 7.387344e+01 3.655975e+01 2.164795e+01 2.794164e+01 7.742519e+01 8.491998e+01 5.828686e+01 8.680435e+01 1.758206e+02 1.526388e+02 1.171125e+02 3.138189e-02 1.327060e+00 4.274216e+00 3.543532e+00 3.810987e+00 3.461350e+00 7.928997e+00 7.916383e+00 8.296896e+00 1.185918e+01 1.597063e+01 1.422214e+01 1.154574e+01 6.830262e-03 3.068319e-01 7.978255e-01 6.061525e-01 8.211791e-01 6.209392e-01 9.436244e-01 1.306892e+00 1.349346e+00 2.090061e+00 3.009389e+00 2.388671e+00 2.509028e+00 6.890991e-04
<GCONST> 1.289124e+02
<MIXTURE> 2 2.035314e-01
<MEAN> 39
 4.080068e-01 1.242128e+01 -3.342870e+00 -2.225467e+00 -3.398825e+00 -5.293804e+00 1.571788e+00 2.798570e+00 1.498282e-03 1.548602e+00 -1.887795e+00 6.496572e-01 7.020319e-01 2.169091e-01 1.254590e+00 -1.870193e-01 1.019822e+00 -1.058093e+00 3.725043e-01 -7.839649e-01 -6.500579e-01 -8.280735e-01 3.062063e-01 -7.309002e-01 1.197770e+00 6.889059e-04 2.559414e-02 -5.437478e-01 2.453705e-01 -3.897502e-01 -3.683252e-02 9.359547e-02 -2.968192e-01 -1.769005e-01 -1.476246e-01 -3.129563e-01 -5.114396e-02 -1.015044e-01 9.607879e-03
<VARIANCE> 39
 1.210944e+01 2.577088e+01 1.808171e+01 3.875341e+01 2.150489e+01 2.197930e+01 4.091038e+01 2.543285e+01 3.530087e+01 3.331808e+01 4.810874e+01 4.249945e+01 1.656415e-02 7.316093e-01 1.562722e+00 1.258023e+00 2.419601e+00 1.606610e+00 3.142605e+00 2.650671e+00 2.945964e+00 3.175459e+00 2.904766e+00 4.319650e+00 3.596037e+00 1.040026e-03 1.159653e-01 2.742078e-01 2.929326e-01 3.684644e-01 4.190454e-01 5.935819e-01 4.036607e-01 4.768846e-01 5.019644e-01 5.532182e-01 5.513003e-01 5.369138e-01 1.142747e-04
<GCONST> 9.039951e+01
<MIXTURE> 3 2.239950e-01
<MEAN> 39
 -1.424408e+00 1.025721e+01 2.158203e+00 -8.232586e+00 -1.478826e+00 -8.270482e+00 -3.153754e+00 1.553884e+00 1.679322e+00 -2.964265e-01 1.757110e+00 -3.186085e-02 8.115795e-01 -6.041721e-01 2.748672e+00 -1.378157e+00 1.725373e+00 -2.107574e-01 -1.436617e+00 -8.654439e-01 -1.016961e+00 -7.285396e-01 -1.442083e+00 9.169575e-01 -2.727216e-01 -3.896574e-03 3.067492e-01 -7.385902e-01 -7.692243e-02 6.787235e-01 -7.653319e-01 7.814913e-01 2.477593e-01 -9.773225e-02 -4.330176e-01 1.986198e-02 -3.204741e-01 -1.967378e-01 2.603857e-03
<VARIANCE> 39
 9.132076e+00 2.606206e+01 2.057965e+01 2.475578e+01 1.793407e+01 2.932849e+01 4.736935e+01 2.890003e+01 3.268402e+01 3.118969e+01 3.176649e+01 3.120736e+01 7.530899e-03 5.616699e-01 1.568542e+00 1.101169e+00 1.733943e+00 2.716406e+00 3.543555e+00 2.701619e+00 2.511816e+00 2.929052e+00 4.377809e+00 3.526035e+00 3.235446e+00 2.928961e-04 9.043701e-02 2.396576e-01 2.812447e-01 5.179242e-01 2.953010e-01 4.313015e-01 4.378574e-01 4.970882e-01 5.544627e-01 4.956751e-01 5.317557e-01 5.502263e-01 2.609936e-05
<GCONST> 8.493864e+01
<MIXTURE> 4 1.517872e-01
<MEAN> 39
 2.728276e+00 9.903668e+00 -3.463433e+00 -2.695171e+00 -4.712681e+00 -3.486257e+00 1.653501e+00 3.902233e+00 4.509024e+00 5.474802e+00 2.750643e+00 5.425111e+00 6.760921e-01 -8.976899e-02 2.224447e+00 -2.287683e+00 -1.977394e+00 -2.479474e+00 -2.765922e+00 -1.254949e+00 -1.993105e+00 -1.804115e+00 -1.178268e+00 -1.029990e+00 1.057412e+00 1.576122e-01 -6.519883e-01 -9.245458e-01 7.147146e-01 7.137272e-01 8.633759e-01 8.930835e-01 -1.066861e-02 -8.353850e-02 -3.903259e-01 -3.949448e-01 -2.305289e-01 -4.116118e-01 -3.957054e-02
<VARIANCE> 39
 1.428029e+01 5.196902e+01 2.355394e+01 2.314751e+01 2.426447e+01 2.233920e+01 3.135141e+01 2.666822e+01 3.962653e+01 3.175232e+01 4.340237e+01 4.130210e+01 1.964569e-02 2.120417e+00 3.678858e+00 2.577632e+00 2.311123e+00 2.607802e+00 3.141761e+00 2.578110e+00 2.279864e+00 3.479975e+00 4.092981e+00 5.582518e+00 6.431386e+00 3.455610e-03 1.711054e-01 3.637396e-01 3.859654e-01 4.384307e-01 4.727654e-01 4.832486e-01 5.309855e-01 4.387050e-01 5.092391e-01 5.704023e-01 8.185427e-01 5.835401e-01 4.526545e-04
<GCONST> 9.943148e+01
<MIXTURE> 5 2.504253e-01
<MEAN> 39
 1.887307e+00 1.038333e+01 -1.932614e+00 -2.528663e+00 -5.224180e+00 -3.685442e+00 -4.103575e+00 -8.117039e-02 -2.643923e+00 -1.537349e+00 -2.102771e+00 -9.833902e-01 7.168399e-01 3.828238e-02 8.907231e-01 -4.824294e-02 3.412113e-01 -3.276941e-01 -3.199354e-01 -3.570858e-01 -2.722552e-02 -4.208448e-01 -3.461622e-02 2.629586e-02 3.027562e-01 1.112693e-02 -1.370158e-01 5.856195e-02 -6.886949e-02 -6.845095e-02 7.395664e-02 -1.531034e-01 -4.622687e-02 -5.215943e-02 6.383596e-02 6.945944e-03 1.344171e-01 4.738104e-02 7.439097e-03
<VARIANCE> 39
 1.185558e+01 2.356582e+01 2.395684e+01 2.395980e+01 2.045192e+01 1.978526e+01 3.551040e+01 3.655272e+01 3.193236e+01 2.907250e+01 6.072663e+01 5.026913e+01 1.764993e-02 4.689330e-01 8.936361e-01 1.004194e+00 9.941012e-01 1.186357e+00 1.506646e+00 2.157488e+00 1.493444e+00 2.219121e+00 1.625676e+00 2.281240e+00 2.260654e+00 4.686341e-04 6.966970e-02 1.043087e-01 1.548142e-01 2.307239e-01 2.206244e-01 2.777731e-01 3.487790e-01 2.684196e-01 3.265190e-01 3.487501e-01 4.766240e-01 5.074572e-01 5.276863e-05
<GCONST> 7.693240e+01
<MIXTURE> 6 1.102698e-01
<MEAN> 39
 2.848403e+00 8.957897e+00 5.552834e-01 -1.574546e+00 -7.702278e+00 -4.702640e+00 -7.907079e+00 -1.296639e+00 -2.803294e+00 -2.755754e+00 -1.782487e-02 -2.356103e+00 6.430272e-01 3.404418e-01 3.651588e+00 -3.577705e-01 -1.378150e+00 -1.481353e+00 -1.047752e+00 -2.476076e+00 2.532585e-01 -7.046514e-01 -9.814402e-01 6.679480e-01 -1.890129e+00 1.316143e-01 -6.413007e-01 -7.280694e-01 -8.418702e-02 1.908901e-02 5.249380e-01 5.776334e-01 7.342498e-01 3.367112e-01 5.269092e-01 2.471333e-01 1.955869e-01 3.511996e-01 -3.214071e-02
<VARIANCE> 39
 1.320401e+01 5.458619e+01 2.650454e+01 2.813410e+01 3.168803e+01 2.855583e+01 3.735736e+01 3.844024e+01 2.894721e+01 3.403714e+01 2.642787e+01 3.455855e+01 1.820134e-02 1.347699e+00 3.536831e+00 2.097322e+00 2.769171e+00 3.308989e+00 3.305377e+00 3.323548e+00 3.269692e+00 2.662350e+00 2.440300e+00 3.892996e+00 2.823615e+00 5.491058e-03 2.036071e-01 6.744387e-01 3.788731e-01 5.220937e-01 4.764144e-01 4.477635e-01 5.225433e-01 6.972901e-01 4.751037e-01 5.364166e-01 5.169185e-01 5.062858e-01 5.517449e-04
<GCONST> 9.944514e+01
<STATE> 3
<NUMMIXES> 6
<MIXTURE> 1 5.960931e-02
<MEAN> 39
 -2.696377e+00 1.009112e+01 -5.951915e+00 -2.911758e+00 -6.648337e+00 -4.986467e+00 1.439895e+00 -8.039066e-01 1.576651e+00 1.318377e+00 3.422027e+00 8.909986e+00 8.215721e-01 -1.501861e+00 -3.802622e-01 -5.288221e-01 -2.024713e-02 -2.692620e-01 -3.594004e-01 -1.437004e+00 -1.132592e+00 1.981432e-01 1.547340e+00 3.252081e+00 3.873092e+00 4.832833e-02 3.107841e-01 -1.826635e-01 5.595934e-01 3.436508e-01 4.582461e-01 4.508163e-01 1.994078e-01 3.915267e-01 2.325877e-01 2.504188e-01 -2.055870e-01 -6.184634e-01 -2.415287e-02
<VARIANCE> 39
 2.417281e+01 2.507083e+01 2.157196e+01 1.505263e+01 1.713001e+01 1.115866e+01 2.216269e+01 1.827796e+01 4.265417e+01 6.487160e+01 6.287524e+01 6.661198e+01 4.850621e-03 5.698399e-01 4.246661e-01 7.581791e-01 9.182191e-01 9.111797e-01 1.371696e+00 1.098895e+00 1.632445e+00 3.160487e+00 4.946239e+00 3.249804e+00 2.410956e+00 4.146321e-04 1.880416e-01 2.767580e-01 2.867706e-01 1.941252e-01 3.214732e-01 4.045737e-01 4.456816e-01 3.253885e-01 3.614529e-01 8.923427e-01 7.032927e-01 7.490988e-01 3.764610e-04
<GCONST> 8.263566e+01
<MIXTURE> 2 1.774687e-01
<MEAN> 39
 7.731766e-01 1.167631e+01 -1.245870e+00 -3.549559e+00 -5.882082e+00 -3.134043e+00 -3.918836e+00 2.154677e+00 -1.340571e+00 -8.894312e-01 9.845592e-01 -5.777325e-01 7.846714e-01 -1.008722e+00 6.172194e-01 -4.563778e-01 -5.945855e-01 -5.672505e-01 -6.112415e-01 -8.599357e-01 -7.368087e-01 -9.250873e-01 -9.992647e-01 -2.842729e-01 -5.530645e-01 6.664651e-02 -2.925662e-01 -1.033622e+00 2.259896e-01 5.353944e-01 5.549504e-01 4.623331e-01 3.651975e-01 7.597722e-03 3.454207e-01 1.888047e-01 8.676192e-02 1.917076e-01 -3.653701e-02
<VARIANCE> 39
 1.089432e+01 4.941993e+01 1.804373e+01 1.597896e+01 2.244065e+01 2.901107e+01 5.149445e+01 2.440768e+01 2.403019e+01 3.375922e+01 3.389176e+01 3.466267e+01 9.226570e-03 8.461066e-01 1.349614e+00 9.525978e-01 1.527458e+00 1.476415e+00 1.674003e+00 1.920218e+00 3.359220e+00 2.645977e+00 1.952369e+00 3.700479e+00 2.835037e+00 7.576210e-04 1.721190e-01 2.847386e-01 2.627099e-01 2.333935e-01 3.039697e-01 4.588701e-01 5.366567e-01 3.614546e-01 2.910266e-01 3.217319e-01 4.972442e-01 5.524211e-01 3.384431e-04
<GCONST> 8.534157e+01
<MIXTURE> 3 3.751235e-01
<MEAN> 39
 -8.253835e-01 1.441006e+01 2.693206e-01 -1.823190e+00 -5.220023e+00 -5.686153e+00 -8.961313e+00 2.851256e-01 -1.227543e+00 -2.106820e+00 3.220842e+00 -2.298271e+00 8.108236e-01 -2.378075e-01 1.010461e+00 -2.146195e-01 5.883663e-01 -5.645509e-01 3.513177e-02 -7.799674e-01 -9.192826e-02 -5.390462e-01 -3.840075e-01 2.356635e-01 -5.078288e-01 1.053304e-02 6.914406e-02 -3.624879e-01 8.570017e-02 -2.853703e-01 9.712033e-03 1.496570e-01 2.502519e-01 5.537917e-02 6.741265e-02 1.497864e-01 -2.294608e-01 9.744986e-02 8.366565e-04
<VARIANCE> 39
 9.457222e+00 2.444243e+01 2.292129e+01 2.347515e+01 1.914970e+01 2.439985e+01 3.324265e+01 2.850218e+01 3.452301e+01 3.562917e+01 3.494485e+01 2.807933e+01 6.557732e-03 4.237655e-01 7.821459e-01 9.919975e-01 1.503780e+00 1.214180e+00 1.571457e+00 1.524299e+00 1.751896e+00 1.661385e+00 1.995281e+00 1.415897e+00 1.665905e+00 2.668409e-04 5.588284e-02 1.470362e-01 1.779725e-01 2.164799e-01 2.353430e-01 2.665078e-01 2.517202e-01 2.883758e-01 3.184296e-01 3.535836e-01 2.843738e-01 3.043407e-01 1.778387e-05
<GCONST> 7.111894e+01
<MIXTURE> 4 1.621146e-01
<MEAN> 39
 1.226722e+00 1.314961e+01 -3.033309e+00 -1.248855e+00 -4.973386e+00 -4.463543e+00 9.676982e-01 6.783805e-01 -5.377191e-01 9.465672e-01 -3.684522e+00 4.375898e+00 7.998048e-01 -9.212402e-01 -4.903382e-01 -8.541461e-01 -3.503217e-01 -8.822182e-01 -1.091363e+00 -1.449991e+00 -1.299181e+00 -1.368821e+00 -1.461929e+00 -1.291179e+00 -6.808864e-01 3.382151e-02 -8.948187e-02 -2.559064e-01 -2.570266e-02 -1.810860e-02 4.415305e-03 -1.519706e-01 -1.388747e-01 -1.566597e-01 -1.028311e-01 -6.305595e-02 4.055771e-02 -1.109222e-01 -4.651925e-03
<VARIANCE> 39
 1.327909e+01 2.635321e+01 1.289224e+01 1.471025e+01 1.048616e+01 1.209240e+01 1.498993e+01 2.521930e+01 1.737186e+01 2.592336e+01 1.746196e+01 1.756381e+01 6.824667e-03 5.613446e-01 5.487166e-01 6.411692e-01 8.877262e-01 9.963551e-01 1.148660e+00 1.165373e+00 1.209371e+00 1.303050e+00 1.742035e+00 2.098597e+00 2.182489e+00 2.901104e-04 8.221131e-02 7.963326e-02 1.162714e-01 1.531200e-01 2.021929e-01 1.613500e-01 2.055795e-01 2.206717e-01 2.214604e-01 2.694935e-01 2.913680e-01 2.498696e-01 4.896726e-05
<GCONST> 6.240367e+01
<MIXTURE> 5 1.093214e-01
<MEAN> 39
 -8.737052e-01 1.074687e+01 -6.016725e+00 -3.503753e+00 -7.723956e+00 -8.710209e+00 -2.228582e+00 -2.746039e+00 -4.037602e+00 -2.631919e+00 -5.600220e+00 3.834782e-01 8.421003e-01 -7.967872e-01 -8.122971e-03 -4.514867e-01 4.931790e-01 -4.218176e-01 -2.875165e-01 -8.406438e-01 -1.409053e+00 -1.504525e+00 -1.504063e+00 -1.354914e+00 -1.012898e-01 3.005385e-02 1.686307e-01 -1.859692e-01 5.862705e-01 4.444316e-01 7.176470e-01 7.610617e-01 3.025047e-01 5.758089e-01 6.550092e-01 6.191761e-01 5.996471e-01 3.082892e-01 -1.653744e-02
<VARIANCE> 39
 1.767077e+01 4.252767e+01 1.740634e+01 2.137789e+01 1.678448e+01 2.922849e+01 2.464624e+01 2.704222e+01 2.677409e+01 2.323285e+01 2.852885e+01 6.003015e+01 8.329559e-03 4.968020e-01 7.679496e-01 8.853021e-01 1.592447e+00 1.759267e+00 1.622904e+00 1.683910e+00 2.134820e+00 1.509856e+00 1.948616e+00 5.017640e+00 5.967450e+00 5.554328e-04 1.586945e-01 1.941422e-01 2.036035e-01 2.805596e-01 3.049502e-01 3.860547e-01 2.958745e-01 2.484401e-01 3.002058e-01 3.515908e-01 3.512527e-01 6.681408e-01 4.169867e-04
<GCONST> 8.212524e+01
<MIXTURE> 6 1.163617e-01
<MEAN> 39
 3.477740e+00 1.506630e+01 -1.342627e+00 4.867084e-01 -3.477921e+00 -3.710458e+00 3.095411e+00 3.213441e+00 1.673300e+00 5.793766e+00 -8.685796e-02 7.147177e+00 6.799231e-01 -5.295458e-02 6.342879e-01 -4.466273e-01 -3.117810e-01 -6.869920e-01 -3.044035e-01 -5.673490e-01 -4.409631e-01 -6.098967e-01 -9.144858e-01 -1.093938e+00 -2.069169e-01 3.588144e-02 -3.615171e-01 -5.551188e-01 -2.504258e-01 -2.272393e-01 -1.147550e-01 -1.925381e-01 -3.303586e-01 -3.463365e-01 -3.273490e-01 -6.316274e-01 -2.977889e-01 -4.986298e-01 4.443989e-03
<VARIANCE> 39
 7.501054e+00 1.874935e+01 1.796115e+01 1.290436e+01 1.602486e+01 1.564113e+01 2.503601e+01 2.683761e+01 2.138666e+01 2.108576e+01 1.958173e+01 2.217861e+01 9.352164e-03 6.060334e-01 1.048880e+00 8.168492e-01 9.034255e-01 9.462411e-01 8.568284e-01 1.533772e+00 1.194722e+00 1.449247e+00 1.663457e+00 1.479525e+00 1.326921e+00 1.064047e-03 9.842230e-02 2.360548e-01 1.037485e-01 1.652917e-01 2.450643e-01 2.092082e-01 3.034509e-01 3.370991e-01 2.636712e-01 2.226738e-01 4.628128e-01 3.670223e-01 1.369484e-04
<GCONST> 6.938169e+01
<STATE> 4
<NUMMIXES> 6
<MIXTURE> 1 1.028576e-01
<MEAN> 39
 -1.638332e+00 1.045327e+01 -4.567437e+00 -3.998053e+00 -5.856434e+00 -4.330544e+00 -2.663717e+00 -9.215763e-01 3.617706e+00 2.041615e+00 6.547540e+00 3.681109e+00 8.694385e-01 -4.560173e-01 2.249633e-01 1.104951e-01 2.963968e-01 -1.793405e-01 5.597604e-02 -1.018199e-01 -1.184103e-01 5.023346e-01 7.308968e-01 8.935156e-01 5.796285e-01 2.519808e-02 2.250047e-01 -8.898641e-02 2.021351e-01 2.904199e-01 2.341976e-01 1.977913e-01 2.814920e-01 2.810254e-01 2.853384e-02 -8.426394e-02 -4.087678e-01 -2.031382e-01 -1.217649e-02
<VARIANCE> 39
 1.612157e+01 4.503310e+01 3.607941e+01 2.057341e+01 3.683932e+01 3.194235e+01 4.205163e+01 4.699881e+01 6.950433e+01 1.008255e+02 4.681480e+01 1.148283e+02 8.612219e-03 8.369104e-01 8.864760e-01 1.101660e+00 1.441096e+00 1.739219e+00 1.586027e+00 2.128831e+00 2.211294e+00 3.681132e+00 3.532558e+00 3.500674e+00 3.961212e+00 5.603115e-04 1.706490e-01 2.362207e-01 2.346456e-01 3.150599e-01 3.872441e-01 3.770071e-01 3.593415e-01 5.111969e-01 6.318495e-01 6.721444e-01 6.521426e-01 8.275256e-01 1.913762e-04
<GCONST> 9.319014e+01
<MIXTURE> 2 1.176934e-01
<MEAN> 39
 -2.470207e+00 8.852062e+00 -4.074583e+00 -1.231423e+00 -5.137048e+00 -6.583575e+00 -3.734450e+00 -2.565473e+00 -4.367228e+00 -1.010150e+00 -4.536361e+00 3.703539e+00 9.059107e-01 -1.458054e-01 -9.500231e-02 2.262208e-01 5.858015e-01 3.350461e-01 -1.063954e-01 -5.378605e-01 -5.381676e-01 -2.221369e-01 -3.300183e-01 -2.673197e-01 9.665744e-02 2.165293e-02 3.351767e-01 1.132688e-01 2.298970e-01 6.876802e-02 1.591954e-01 3.172716e-01 4.304686e-01 4.177369e-01 4.431304e-01 3.303924e-01 4.064756e-01 7.816944e-02 -9.230169e-03
<VARIANCE> 39
 9.444934e+00 3.938486e+01 1.005918e+01 1.339525e+01 1.221109e+01 1.734639e+01 1.535611e+01 1.817906e+01 1.482793e+01 1.774651e+01 2.900178e+01 3.194159e+01 4.967371e-03 3.631339e-01 2.352454e-01 3.341918e-01 4.358365e-01 4.799657e-01 5.748517e-01 8.250560e-01 8.212149e-01 6.406895e-01 9.225651e-01 9.794934e-01 1.412749e+00 1.326527e-04 5.428544e-02 5.986222e-02 6.406697e-02 8.551779e-02 7.221595e-02 1.659487e-01 1.206471e-01 1.124002e-01 1.497928e-01 1.950774e-01 3.413102e-01 2.695548e-01 2.952254e-05
<GCONST> 4.938371e+01
<MIXTURE> 3 2.685862e-01
<MEAN> 39
 -1.012596e+00 1.445450e+01 -5.650716e-01 -1.782737e+00 -5.992144e+00 -3.671829e+00 -8.896146e+00 2.130565e+00 -5.306685e+00 -1.117014e+00 8.935940e-01 -1.868329e+00 8.394323e-01 -2.508585e-01 3.261717e-01 -1.133517e-01 2.216164e-01 9.224343e-03 9.003390e-02 1.156188e-02 -1.231329e-01 -1.582014e-01 -2.808389e-01 -1.676889e-01 1.424804e-01 1.891059e-02 9.150441e-02 -1.777685e-01 6.504618e-03 -2.066472e-02 1.250062e-01 -8.229975e-02 1.691410e-01 -1.767892e-02 2.261223e-01 7.245279e-02 3.566778e-02 2.839161e-02 -4.885050e-03
<VARIANCE> 39
 8.321325e+00 3.779956e+01 1.249879e+01 1.231677e+01 1.759019e+01 2.862841e+01 3.038299e+01 2.313129e+01 2.382797e+01 2.639087e+01 2.438451e+01 2.036177e+01 5.312862e-03 4.663982e-01 4.530318e-01 4.745224e-01 6.300304e-01 7.009534e-01 6.895655e-01 1.016091e+00 1.001051e+00 1.123703e+00 8.107526e-01 1.114788e+00 8.066772e-01 1.756967e-04 6.967557e-02 8.414225e-02 9.077853e-02 1.326384e-01 1.457065e-01 1.395524e-01 1.808493e-01 2.042796e-01 1.816383e-01 1.562653e-01 1.584868e-01 1.530863e-01 2.700660e-05
<GCONST> 5.578492e+01
<MIXTURE> 4 1.124723e-01
<MEAN> 39
 -1.919865e+00 1.222607e+01 -5.033318e+00 -1.394817e+00 -7.702048e+00 -7.715642e+00 -3.502048e+00 -2.910246e+00 -4.546426e+00 -2.021915e+00 -7.099888e+00 4.059194e+00 8.659478e-01 -6.320500e-01 -8.434842e-01 -8.965397e-01 -4.778097e-01 -1.093922e+00 -1.337338e+00 -1.597809e+00 -1.580241e+00 -1.195630e+00 -1.171129e+00 -8.771254e-01 -5.278456e-01 2.101144e-02 2.690517e-01 9.666049e-02 2.240764e-01 7.788768e-02 2.411624e-01 2.954709e-01 3.263513e-01 2.984023e-01 3.463656e-01 2.852007e-01 3.198577e-01 9.519178e-02 -6.340787e-03
<VARIANCE> 39
 1.276040e+01 2.454566e+01 1.518291e+01 1.361896e+01 1.068310e+01 1.447739e+01 1.955804e+01 2.795549e+01 1.732046e+01 2.167145e+01 1.870852e+01 1.771629e+01 5.316689e-03 3.133434e-01 3.082855e-01 4.787732e-01 7.577140e-01 7.076077e-01 7.798243e-01 7.117078e-01 1.210737e+00 9.672917e-01 1.138166e+00 1.251657e+00 1.481349e+00 1.163093e-04 5.497080e-02 7.350900e-02 8.404077e-02 1.181066e-01 1.223394e-01 1.490638e-01 2.044525e-01 2.012020e-01 1.817348e-01 2.065112e-01 1.879819e-01 2.144421e-01 2.088424e-05
<GCONST> 5.356580e+01
<MIXTURE> 5 1.521120e-01
<MEAN> 39
 -1.669205e+00 1.180265e+01 -6.046795e+00 -3.425891e+00 -1.054691e+01 -9.738563e+00 -6.288465e+00 -5.203986e+00 -7.005667e+00 -5.095249e+00 -7.176884e+00 -8.184845e-01 8.472988e-01 1.855633e-01 2.675551e-01 4.693939e-02 4.241858e-01 5.819586e-03 4.081811e-01 -1.108754e-01 -4.630752e-02 7.780620e-03 -2.278066e-01 -1.298560e-02 2.810146e-01 9.365723e-03 1.939442e-01 1.918506e-01 3.498771e-01 2.113802e-01 5.895450e-01 4.164288e-01 5.453126e-01 6.429160e-01 6.002557e-01 5.178554e-01 4.277698e-01 2.633521e-01 -1.946892e-03
<VARIANCE> 39
 1.263335e+01 1.892240e+01 1.705384e+01 2.053007e+01 1.305566e+01 1.882475e+01 3.113924e+01 2.106783e+01 2.797180e+01 2.482063e+01 2.589105e+01 4.207972e+01 8.535651e-03 2.485747e-01 6.724417e-01 6.985198e-01 1.113787e+00 1.190547e+00 1.171767e+00 1.344852e+00 1.245205e+00 1.221967e+00 1.597886e+00 1.615970e+00 1.526234e+00 1.029303e-04 5.298404e-02 1.131239e-01 1.239044e-01 2.394055e-01 1.341630e-01 2.361901e-01 2.356536e-01 2.613458e-01 2.059832e-01 2.765327e-01 2.819780e-01 3.038931e-01 2.269183e-05
<GCONST> 6.408478e+01
<MIXTURE> 6 2.462776e-01
<MEAN> 39
 -1.791083e+00 1.573723e+01 9.367868e-01 -3.033556e+00 -5.483484e+00 -4.703718e+00 -1.044590e+01 -4.628935e-01 2.174195e-01 -5.689993e+00 6.816419e+00 -4.180637e+00 8.531217e-01 -1.738505e-01 2.775233e-01 -9.630835e-02 1.356268e-01 4.301139e-02 9.445675e-03 -1.456687e-01 -1.526846e-01 -2.008568e-01 -2.229330e-01 -4.038775e-02 -3.300140e-01 7.917935e-03 6.872239e-02 -1.347309e-01 2.282364e-02 -1.070308e-01 6.769392e-02 1.158507e-02 6.345364e-02 -1.160203e-02 -8.026840e-03 1.258680e-01 -1.247388e-01 1.606094e-01 -1.587880e-03
<VARIANCE> 39
 6.642314e+00 1.815561e+01 7.037039e+00 1.313252e+01 1.759020e+01 1.443106e+01 1.387582e+01 1.829567e+01 1.530892e+01 2.746500e+01 1.013649e+01 8.514427e+00 5.597536e-03 1.463943e-01 2.753176e-01 2.438779e-01 4.048255e-01 4.256992e-01 5.160650e-01 5.846710e-01 6.531184e-01 7.676508e-01 4.813122e-01 6.090609e-01 7.113295e-01 7.915693e-05 2.384114e-02 4.444527e-02 4.653557e-02 8.190341e-02 6.613698e-02 6.616394e-02 7.067183e-02 9.826253e-02 1.027218e-01 1.061849e-01 7.029378e-02 9.915276e-02 1.140441e-05
<GCONST> 3.441515e+01
<STATE> 5
<NUMMIXES> 6
<MIXTURE> 1 1.793859e-01
<MEAN> 39
 -1.228810e+00 1.290022e+01 -2.667393e+00 -1.854867e+00 -5.749832e+00 -5.112824e+00 -4.749271e+00 -1.639247e+00 -1.222146e+00 -1.834699e+00 4.162184e-01 1.639625e+00 8.765616e-01 8.904228e-02 4.230139e-01 3.252488e-01 4.966598e-01 3.771597e-01 3.545610e-01 3.405417e-01 2.777525e-01 5.677901e-01 3.595081e-01 4.285819e-01 4.318202e-01 1.094271e-02 8.629739e-02 -7.169281e-02 3.304934e-02 -3.605673e-02 5.902928e-02 -2.227885e-02 7.497053e-02 1.105775e-01 9.302653e-02 1.280895e-01 -8.948019e-03 -1.096962e-01 -3.904430e-03
<VARIANCE> 39
 1.443391e+01 3.770023e+01 2.698284e+01 1.811843e+01 2.619569e+01 3.326478e+01 4.138532e+01 3.352206e+01 4.190067e+01 5.194196e+01 6.155412e+01 6.840304e+01 6.890643e-03 4.375484e-01 6.326829e-01 9.545016e-01 1.028373e+00 1.266811e+00 1.410107e+00 1.632119e+00 1.454961e+00 1.365063e+00 1.559850e+00 1.689582e+00 2.010394e+00 1.288360e-04 6.293147e-02 9.404600e-02 1.200116e-01 1.569476e-01 2.016784e-01 2.056063e-01 2.218997e-01 2.836196e-01 2.980873e-01 2.565486e-01 3.324967e-01 2.888332e-01 4.024565e-05
<GCONST> 7.230614e+01
<MIXTURE> 2 1.830437e-01
<MEAN> 39
 -1.472820e+00 2.044292e+00 -8.669088e-01 -8.090712e-01 -1.280867e+00 -1.024381e+00 -1.433737e+00 -6.398743e-01 -7.614829e-01 -8.125334e-01 -4.993573e-02 5.725094e-01 9.756244e-01 1.007941e-01 3.635041e-02 3.166558e-02 1.111790e-01 9.891148e-02 4.031925e-02 3.470917e-02 1.444786e-02 7.776174e-02 3.764630e-02 4.426012e-02 1.157014e-02 1.261402e-04 3.978203e-03 -7.127164e-03 -1.312726e-02 -4.319109e-02 -4.255590e-02 -1.585073e-02 -2.449097e-03 5.615451e-03 -1.452872e-02 -2.600213e-02 -2.136982e-02 -2.290598e-02 -1.189601e-03
<VARIANCE> 39
 2.763316e+00 3.980875e+00 4.989062e+00 7.110365e+00 5.273159e+00 6.573621e+00 1.006117e+01 7.303751e+00 6.963686e+00 9.307328e+00 1.349391e+01 9.750966e+00 8.178985e-04 9.706281e-02 1.357079e-01 2.234102e-01 3.219660e-01 3.853506e-01 4.114102e-01 4.749304e-01 4.034254e-01 4.059846e-01 3.863391e-01 3.987393e-01 3.523839e-01 3.754082e-05 1.328710e-02 2.191327e-02 3.286496e-02 4.295294e-02 6.149268e-02 6.083586e-02 6.716640e-02 6.402267e-02 5.512235e-02 6.224826e-02 6.019782e-02 5.850393e-02 3.730628e-06
<GCONST> 1.340352e+01
<MIXTURE> 3 2.710322e-01
<MEAN> 39
 -2.522539e+00 1.472338e+01 -5.512897e-01 -2.397915e+00 -3.867423e+00 -5.558569e+00 -6.693589e+00 -1.380618e-01 -1.523527e+00 -2.561958e+00 3.140745e+00 -4.348752e-01 8.825732e-01 3.289000e-03 2.262099e-02 -3.860553e-02 -8.131550e-02 6.062295e-02 -2.996837e-02 6.458627e-02 -3.531153e-02 1.846327e-02 8.843089e-04 -1.583918e-02 4.005517e-02 2.963826e-04 1.277295e-02 -2.372499e-02 4.955434e-03 -2.220070e-02 -1.003367e-04 -1.257355e-02 4.902998e-04 1.686405e-02 1.839109e-02 6.750550e-03 8.279100e-04 -4.546315e-04 -9.921342e-04
<VARIANCE> 39
 7.641933e+00 3.560032e+01 9.983122e+00 7.513958e+00 1.061565e+01 1.698545e+01 2.588783e+01 1.371987e+01 2.344494e+01 3.061109e+01 3.232300e+01 3.042068e+01 5.958120e-03 4.425706e-02 7.379212e-02 8.620886e-02 1.174162e-01 1.258997e-01 1.395475e-01 1.513733e-01 1.499793e-01 1.572321e-01 1.845580e-01 1.282551e-01 1.641574e-01 3.754082e-05 5.843875e-03 1.505795e-02 1.370083e-02 1.756276e-02 2.315397e-02 2.217408e-02 2.511293e-02 2.662693e-02 3.405919e-02 2.928312e-02 2.082451e-02 3.134724e-02 3.730628e-06
<GCONST> 5.978703e+00
<MIXTURE> 4 9.141761e-02
<MEAN> 39
 -8.613014e-01 1.159207e+01 -3.575786e+00 -7.174148e-01 -5.046027e+00 -6.744497e+00 -3.318396e+00 -4.771279e-01 -3.619007e+00 -2.228509e+00 -4.012589e+00 2.747016e+00 8.891811e-01 -1.496665e-01 -3.673997e-01 -4.596940e-01 -3.883019e-01 -4.827170e-01 -5.603342e-01 -4.292960e-01 -4.495842e-01 -4.140799e-01 -4.356031e-01 -3.843745e-01 -4.737984e-01 1.986305e-03 -3.927305e-02 -6.075857e-02 -8.598661e-02 -1.092958e-01 -8.870919e-02 -7.155702e-02 -6.836174e-02 -1.321367e-01 -6.831728e-02 -1.946400e-02 -3.608954e-02 -8.257914e-02 -1.592353e-03
<VARIANCE> 39
 8.042003e+00 2.780649e+01 9.349328e+00 1.110606e+01 1.815328e+01 2.934794e+01 1.904074e+01 2.458779e+01 2.056398e+01 2.125595e+01 2.667326e+01 2.812767e+01 7.182000e-03 6.636920e-02 1.006315e-01 1.600173e-01 2.275006e-01 2.513206e-01 2.850417e-01 2.277340e-01 3.439783e-01 3.331269e-01 3.005462e-01 2.819590e-01 3.354166e-01 3.754082e-05 1.018724e-02 1.900172e-02 3.228084e-02 3.467327e-02 5.541414e-02 5.375721e-02 5.695408e-02 6.366511e-02 6.146242e-02 5.026789e-02 6.437536e-02 5.286132e-02 3.730628e-06
<GCONST> 2.282414e+01
<MIXTURE> 5 1.781485e-01
<MEAN> 39
 -4.285960e-01 1.304371e+01 -3.790211e+00 -4.369265e-01 -5.784404e+00 -6.454930e+00 -4.310430e+00 -8.109456e-01 -4.591559e+00 -1.724923e+00 -4.404402e+00 2.157681e+00 8.584999e-01 1.363073e-01 2.531018e-01 1.489170e-01 3.412773e-01 3.311678e-01 2.785204e-01 2.452930e-01 2.413195e-01 2.841669e-01 2.019400e-01 8.777532e-02 2.153281e-01 3.149536e-03 -4.307346e-02 -5.748946e-02 -4.489319e-02 -1.012161e-01 -6.612706e-02 -7.140166e-02 -1.538781e-02 -4.961962e-02 -1.035132e-02 -3.494234e-02 7.254147e-04 -1.072427e-01 -1.636882e-03
<VARIANCE> 39
 7.077870e+00 1.669915e+01 9.252220e+00 1.673699e+01 1.664112e+01 2.274135e+01 2.187335e+01 3.647253e+01 2.441666e+01 2.476669e+01 2.634647e+01 3.444780e+01 1.019636e-02 6.156225e-02 1.177830e-01 2.053850e-01 3.409533e-01 3.323604e-01 3.907499e-01 3.892671e-01 6.571060e-01 4.463853e-01 5.238404e-01 5.002319e-01 4.400135e-01 3.754082e-05 1.202398e-02 2.910121e-02 4.278382e-02 5.506356e-02 6.168773e-02 6.827937e-02 6.468001e-02 8.912359e-02 1.051451e-01 8.364860e-02 9.798988e-02 7.442113e-02 3.965451e-06
<GCONST> 3.186587e+01
<MIXTURE> 6 9.696970e-02
<MEAN> 39
 -2.365730e+00 1.068929e+01 -5.090308e+00 -3.548688e+00 -9.352619e+00 -9.329796e+00 -7.271455e+00 -3.485936e+00 -5.509666e+00 -4.631957e+00 -5.421969e+00 -6.815662e-01 8.826174e-01 -5.265997e-02 -1.323861e-01 -1.975524e-01 -2.042585e-01 -9.095211e-02 -2.460755e-01 -1.568284e-01 -2.340890e-01 -1.090610e-01 -1.816990e-01 -3.531667e-02 -1.759094e-01 2.781160e-03 1.145228e-01 1.413345e-01 2.106714e-01 1.795623e-01 2.872403e-01 3.124638e-01 3.094181e-01 2.961039e-01 2.855132e-01 2.487496e-01 2.196490e-01 1.907909e-01 -1.645628e-03
<VARIANCE> 39
 8.827194e+00 3.188697e+01 1.208184e+01 1.128400e+01 1.504966e+01 1.980526e+01 2.757827e+01 2.539878e+01 1.731640e+01 2.736180e+01 2.824938e+01 3.618516e+01 7.298699e-03 7.580219e-02 1.369409e-01 2.178954e-01 2.247960e-01 3.474164e-01 3.869408e-01 4.279303e-01 3.931457e-01 5.024906e-01 3.222335e-01 3.713171e-01 4.243075e-01 3.754082e-05 1.360501e-02 2.165790e-02 3.532335e-02 3.520210e-02 6.738428e-02 7.628130e-02 8.192317e-02 9.732163e-02 9.019478e-02 6.312359e-02 8.051389e-02 7.243418e-02 4.320474e-06
<GCONST> 2.983294e+01
<STATE> 6
<NUMMIXES> 6
<MIXTURE> 1 1.499988e-01
<MEAN> 39
 -1.728729e+00 7.563629e+00 -5.211792e+00 -2.863103e+00 -7.373245e+00 -7.057211e+00 -4.611129e+00 -4.218190e+00 -4.497806e+00 -4.423717e+00 -5.663178e+00 -6.235149e-01 9.160297e-01 2.146848e-01 3.258572e-01 3.013762e-01 3.504730e-01 3.986502e-01 4.424822e-01 4.529814e-01 4.581420e-01 4.295661e-01 2.536829e-01 2.991903e-01 1.305324e-01 -1.488362e-03 1.516757e-01 2.420691e-01 3.504561e-01 3.045364e-01 4.111749e-01 3.692352e-01 4.239105e-01 4.173045e-01 3.817390e-01 3.631943e-01 2.779232e-01 2.272052e-01 -1.009217e-03
<VARIANCE> 39
 1.240457e+01 4.905667e+01 8.903234e+00 1.234685e+01 1.827690e+01 2.319560e+01 1.412683e+01 1.939793e+01 1.632131e+01 1.822063e+01 2.229114e+01 2.936082e+01 4.873341e-03 1.402524e-01 2.038082e-01 3.609996e-01 4.514075e-01 6.215750e-01 5.374368e-01 6.660078e-01 6.254098e-01 5.666400e-01 5.745501e-01 6.206743e-01 5.464191e-01 3.754082e-05 1.596988e-02 4.878864e-02 5.632133e-02 7.293769e-02 1.012633e-01 7.761867e-02 9.961420e-02 1.011936e-01 1.102258e-01 8.585681e-02 1.241463e-01 1.159791e-01 3.730628e-06
<GCONST> 3.807568e+01
<MIXTURE> 2 1.772470e-01
<MEAN> 39
 -5.322420e-01 7.866678e+00 -2.271236e+00 2.519016e-01 -3.458854e+00 -3.213018e+00 -7.033653e-01 -8.116762e-01 -1.518528e+00 -1.379565e+00 -2.725211e+00 1.531114e+00 9.307874e-01 4.225565e-01 5.033963e-01 6.467224e-01 6.753376e-01 7.336758e-01 7.107478e-01 8.726336e-01 6.123037e-01 7.335930e-01 6.737072e-01 5.449163e-01 3.600605e-01 -2.343002e-03 -6.083599e-02 -1.397313e-01 -1.640293e-01 -1.853875e-01 -1.686004e-01 -2.028656e-01 -1.803720e-01 -2.208056e-01 -1.169037e-01 -9.548318e-02 -9.890800e-02 -1.117805e-01 -8.627039e-04
<VARIANCE> 39
 1.116975e+01 4.398233e+01 9.840569e+00 1.049123e+01 1.846119e+01 1.939819e+01 1.341463e+01 1.781059e+01 1.331879e+01 1.468145e+01 2.049205e+01 2.389150e+01 3.186871e-03 1.348342e-01 2.667559e-01 3.353420e-01 3.597790e-01 6.059190e-01 5.402745e-01 5.729505e-01 8.182061e-01 5.880181e-01 6.184799e-01 4.969795e-01 6.085392e-01 3.754082e-05 2.225333e-02 4.355830e-02 7.130875e-02 7.577448e-02 1.116391e-01 1.030127e-01 1.217386e-01 1.296888e-01 1.003113e-01 1.167729e-01 1.273663e-01 9.671059e-02 3.730628e-06
<GCONST> 3.776092e+01
<MIXTURE> 3 2.719235e-01
<MEAN> 39
 -5.843534e-01 1.439372e+01 -1.891401e+00 -3.872193e-01 -4.525918e+00 -5.249369e+00 -6.621715e+00 -3.837951e-01 -2.229965e+00 -1.144255e+00 -6.214208e-01 -2.902220e-01 8.820206e-01 4.042415e-02 1.928682e-02 8.786784e-03 -3.130881e-02 -6.807282e-03 -3.503893e-02 1.590643e-02 -6.989488e-02 1.886144e-01 2.825422e-03 2.282637e-02 -1.646253e-01 -1.722330e-03 -1.032602e-02 -5.763919e-02 1.336494e-02 -5.505849e-02 -1.817487e-02 -7.944459e-02 3.093479e-02 7.160852e-03 2.503723e-02 -6.739172e-03 3.963682e-02 -3.927421e-02 -1.043536e-03
<VARIANCE> 39
 1.214513e+01 3.194548e+01 1.535872e+01 1.799837e+01 1.591939e+01 2.101810e+01 3.048219e+01 2.677545e+01 2.031907e+01 2.925498e+01 4.777639e+01 3.047383e+01 4.016816e-03 8.716553e-02 1.503881e-01 2.197086e-01 2.898487e-01 3.418640e-01 3.475033e-01 4.071587e-01 4.322439e-01 3.586904e-01 3.663075e-01 3.408508e-01 3.908972e-01 3.754082e-05 1.589273e-02 2.321436e-02 4.049448e-02 4.954049e-02 7.131644e-02 7.046328e-02 8.450358e-02 7.886852e-02 8.192315e-02 7.380287e-02 7.754107e-02 9.438964e-02 3.730628e-06
<GCONST> 3.179498e+01
<MIXTURE> 4 1.441021e-01
<MEAN> 39
 -3.664066e-01 8.516607e+00 -1.980204e+00 4.926866e-01 -2.637465e+00 -2.609769e+00 -1.701779e-01 -2.333238e-01 -1.189083e+00 -2.348992e-01 -2.611640e+00 2.454378e+00 9.276237e-01 -1.163566e-01 -4.365736e-01 -5.457832e-01 -4.940992e-01 -5.108240e-01 -4.977626e-01 -4.131847e-01 -6.710897e-01 -3.943954e-01 -4.470471e-01 -4.363504e-01 -3.473547e-01 -3.133487e-04 -1.317272e-01 -2.270235e-01 -2.732559e-01 -3.013007e-01 -3.253793e-01 -3.138208e-01 -3.394824e-01 -3.131427e-01 -2.764291e-01 -2.627454e-01 -2.184828e-01 -2.728542e-01 -8.889584e-04
<VARIANCE> 39
 1.017900e+01 4.625430e+01 7.880683e+00 1.025834e+01 1.589829e+01 2.206900e+01 1.005217e+01 1.420215e+01 1.546499e+01 1.426508e+01 1.853415e+01 2.373883e+01 4.137454e-03 1.038645e-01 2.059071e-01 3.034901e-01 4.251238e-01 4.766346e-01 4.988423e-01 6.710349e-01 5.725161e-01 6.125378e-01 6.480700e-01 7.420207e-01 6.191745e-01 3.754082e-05 1.998958e-02 4.792926e-02 5.546699e-02 6.848802e-02 8.562251e-02 1.066391e-01 9.121697e-02 1.083341e-01 9.199523e-02 8.986167e-02 1.199850e-01 9.364799e-02 3.730628e-06
<GCONST> 3.524374e+01
<MIXTURE> 5 1.473005e-01
<MEAN> 39
 -2.129230e-01 1.470807e+01 -2.358281e+00 -1.448354e-01 -6.525524e+00 -5.307686e+00 -3.859129e+00 -1.451402e-01 2.704074e-01 -1.087959e+00 6.653526e-01 2.398113e+00 8.735024e-01 1.155254e-01 1.808892e-01 1.270066e-01 2.426013e-01 1.169843e-01 1.780481e-01 2.406715e-01 4.053944e-02 3.776886e-01 4.829147e-01 3.830676e-01 9.142666e-02 7.752536e-03 -4.402193e-02 -2.256359e-01 -1.699783e-01 -2.908490e-01 -7.407933e-02 -1.563548e-01 -1.245699e-01 -2.273071e-01 -2.151199e-01 -1.013828e-01 -1.587553e-01 -2.145460e-01 -2.892175e-03
<VARIANCE> 39
 1.601370e+01 3.041188e+01 2.512164e+01 2.253111e+01 2.189664e+01 2.732339e+01 4.072231e+01 2.810099e+01 4.098230e+01 5.764568e+01 7.095012e+01 7.685172e+01 6.240441e-03 3.248391e-01 5.998629e-01 7.391108e-01 9.775148e-01 1.240908e+00 1.376952e+00 1.368932e+00 1.302401e+00 1.322317e+00 1.263371e+00 1.447785e+00 1.703999e+00 9.546290e-05 7.167595e-02 9.111448e-02 1.790963e-01 1.620136e-01 2.202737e-01 2.709581e-01 2.716464e-01 2.555563e-01 2.592563e-01 2.771253e-01 3.079009e-01 2.922273e-01 2.238257e-05
<GCONST> 7.044217e+01
<MIXTURE> 6 1.094267e-01
<MEAN> 39
 -1.184735e+00 6.884920e+00 -4.414357e+00 -1.613487e+00 -5.549177e+00 -5.529986e+00 -3.030996e+00 -3.295203e+00 -3.287373e+00 -3.272114e+00 -4.832799e+00 2.801781e-01 9.187731e-01 -2.576422e-01 -5.250703e-01 -6.961815e-01 -7.094209e-01 -8.011619e-01 -7.726898e-01 -7.559908e-01 -8.074768e-01 -7.194973e-01 -7.394561e-01 -5.569466e-01 -6.580076e-01 -4.941772e-04 6.755579e-02 1.938271e-01 2.214976e-01 1.796139e-01 2.180940e-01 1.918839e-01 2.546923e-01 3.283013e-01 1.992504e-01 1.706134e-01 1.522481e-01 1.222271e-01 -1.039342e-03
<VARIANCE> 39
 1.061160e+01 5.155696e+01 9.468622e+00 1.076891e+01 1.980936e+01 2.505511e+01 1.122137e+01 1.550842e+01 1.453039e+01 1.643811e+01 1.793682e+01 2.436962e+01 5.858794e-03 1.145536e-01 2.087951e-01 2.683729e-01 3.737614e-01 4.855096e-01 4.530735e-01 5.415615e-01 4.438188e-01 4.857595e-01 4.593096e-01 9.806315e-01 6.304201e-01 3.754082e-05 1.682931e-02 4.107321e-02 6.173300e-02 6.240708e-02 1.034384e-01 9.159975e-02 9.580225e-02 1.106811e-01 9.862989e-02 1.013152e-01 1.171075e-01 7.128835e-02 3.730628e-06
<GCONST> 3.531331e+01
<STATE> 7
<NUMMIXES> 6
<MIXTURE> 1 8.852186e-02
<MEAN> 39
 -3.997833e+00 9.963608e+00 -9.160772e+00 -3.982504e+00 -9.029984e+00 -8.902926e+00 -2.456758e+00 -2.448226e+00 3.725511e+00 6.791280e+00 1.279482e+01 1.800598e+01 9.091790e-01 5.443848e-02 -3.083765e-02 1.672342e-01 -4.088652e-03 5.917793e-02 -1.240348e-02 -2.147568e-03 1.117438e-01 1.516127e-01 2.477744e-01 9.561259e-02 1.119746e-01 2.311714e-03 1.480313e-01 1.892703e-01 2.715256e-01 1.298209e-01 3.421881e-01 2.924075e-01 2.049132e-01 3.281198e-02 6.478786e-02 5.494350e-03 -2.388009e-01 -9.849224e-02 -2.075832e-03
<VARIANCE> 39
 2.340647e+01 3.960078e+01 1.919217e+01 1.226365e+01 3.459780e+01 1.889151e+01 1.496828e+01 1.039915e+01 3.584778e+01 5.084389e+01 4.584943e+01 2.706541e+01 5.828263e-03 3.376584e-01 5.595113e-01 7.067410e-01 8.767800e-01 1.489348e+00 1.270744e+00 8.685150e-01 5.590348e-01 6.232501e-01 1.215546e+00 9.511690e-01 9.203451e-01 3.754082e-05 3.702021e-02 6.483409e-02 7.882451e-02 1.440140e-01 2.096277e-01 1.362440e-01 1.419629e-01 1.004089e-01 1.112788e-01 1.372618e-01 1.923575e-01 1.075491e-01 5.013522e-06
<GCONST> 5.357648e+01
<MIXTURE> 2 6.879564e-02
<MEAN> 39
 -4.943256e-01 1.213315e+01 -4.252704e+00 -4.468928e-01 -5.254757e+00 -4.343765e+00 -1.552336e+00 7.508177e-01 5.781110e+00 6.460010e+00 7.719790e+00 8.059706e+00 9.207422e-01 -1.109427e-01 6.811890e-02 1.015086e-01 -2.698949e-01 3.343882e-01 4.579040e-02 1.895498e-01 3.005358e-01 1.855271e-01 1.289717e-01 1.062981e-01 9.983881e-02 3.715616e-03 -1.639210e-01 -3.165453e-01 -1.945862e-01 -4.477297e-01 -1.503024e-01 -2.766493e-01 -1.838356e-01 -1.723693e-01 -3.485624e-02 -1.765913e-01 -4.685080e-02 -1.653952e-01 -3.474320e-03
<VARIANCE> 39
 2.176572e+01 2.154648e+01 2.495334e+01 2.585592e+01 2.496082e+01 2.007016e+01 3.793423e+01 4.666330e+01 5.258097e+01 6.545634e+01 7.619785e+01 1.274727e+02 4.023702e-03 6.013077e-01 7.716027e-01 9.159424e-01 8.475115e-01 1.844685e+00 1.600951e+00 1.066612e+00 1.157484e+00 1.714079e+00 1.591095e+00 2.461520e+00 1.456511e+00 1.032840e-04 9.248256e-02 9.129024e-02 1.977550e-01 1.968146e-01 2.310782e-01 3.290219e-01 2.748035e-01 2.795658e-01 2.962055e-01 5.250633e-01 3.398856e-01 4.627554e-01 1.766855e-05
<GCONST> 7.535874e+01
<MIXTURE> 3 3.024356e-01
<MEAN> 39
 -1.743715e+00 1.726307e+01 1.370071e+00 -1.641167e+00 -6.531520e+00 -3.126253e+00 -1.194712e+01 7.627821e-01 3.617872e-02 -5.744211e+00 5.578950e+00 -5.405674e+00 8.631803e-01 3.235329e-02 -7.430766e-02 1.075072e-01 -1.216367e-01 1.963952e-01 -1.977227e-01 1.323666e-01 4.919507e-02 2.005733e-01 9.042191e-02 9.840358e-02 1.831478e-02 -9.894380e-04 -9.152059e-03 -9.173980e-02 1.225646e-02 -1.075086e-01 9.302799e-02 -6.655221e-02 6.434987e-02 -6.533912e-02 2.647856e-02 4.543186e-02 -7.022975e-02 8.173705e-02 -1.402002e-03
<VARIANCE> 39
 1.150825e+01 2.420343e+01 1.204992e+01 1.536958e+01 2.293217e+01 2.146263e+01 2.431721e+01 2.065522e+01 2.514244e+01 2.404749e+01 1.477242e+01 1.450212e+01 3.945495e-03 1.665535e-01 2.197742e-01 3.015205e-01 3.794334e-01 3.108166e-01 5.199181e-01 6.310900e-01 6.536930e-01 6.641480e-01 6.070443e-01 5.073462e-01 5.088702e-01 3.787340e-05 3.510478e-02 4.491662e-02 5.808086e-02 7.888360e-02 7.950327e-02 1.165978e-01 1.093038e-01 1.108233e-01 1.438420e-01 1.155125e-01 9.740339e-02 7.873587e-02 5.347166e-06
<GCONST> 3.851587e+01
<MIXTURE> 4 1.320946e-01
<MEAN> 39
 8.785511e-01 1.529730e+01 -5.028074e+00 1.234912e+00 -6.455574e+00 -6.307006e+00 -1.846293e+00 -2.027333e+00 -1.725588e+00 2.685535e-01 -2.883574e+00 5.952012e+00 8.912676e-01 -5.123639e-01 -3.642835e-01 -4.725659e-01 -6.411223e-01 -3.798646e-01 -8.651722e-01 -6.845281e-02 -4.211515e-01 -1.393850e-01 -3.107569e-01 -1.843023e-01 -4.210002e-01 7.659059e-04 -1.698922e-01 -2.342828e-01 -1.077025e-01 -4.666044e-01 -4.306975e-02 -3.447157e-01 -6.047222e-02 -1.986374e-01 -1.411739e-01 -2.278733e-01 -2.919770e-02 -1.988778e-01 -1.728057e-03
<VARIANCE> 39
 1.417025e+01 2.414794e+01 1.233676e+01 1.338303e+01 1.272849e+01 2.166544e+01 1.765644e+01 2.230888e+01 2.267229e+01 1.752713e+01 4.695841e+01 5.490314e+01 4.461607e-03 1.535362e-01 3.231675e-01 4.333724e-01 5.730491e-01 7.233756e-01 8.087224e-01 8.365242e-01 9.561997e-01 7.722158e-01 8.777886e-01 1.133696e+00 1.254454e+00 3.754082e-05 3.053774e-02 6.030763e-02 7.247169e-02 8.164131e-02 1.064653e-01 1.374856e-01 2.013739e-01 1.474720e-01 1.539835e-01 1.565037e-01 1.496209e-01 1.564605e-01 4.004961e-06
<GCONST> 4.818364e+01
<MIXTURE> 5 1.966356e-01
<MEAN> 39
 1.350973e+00 8.983504e+00 -9.819741e-01 -6.485538e-02 -2.074828e+00 -1.851722e+00 -3.247531e+00 -5.045477e-01 -1.543960e+00 -2.516954e-02 7.498477e-02 -1.127556e+00 8.773072e-01 2.705852e-01 -1.975344e-01 -2.957260e-01 1.469159e-01 1.597549e-01 -1.297837e-01 -3.067124e-01 -2.371787e-01 1.758579e-01 3.196359e-01 -1.490581e-02 -1.076955e-01 -3.077783e-03 -1.096699e-02 1.439964e-02 -1.429284e-01 -4.988818e-02 -6.780179e-02 -1.911753e-01 -9.517469e-02 -1.740360e-02 3.684632e-02 -1.077500e-01 -8.195853e-02 6.473858e-04 -6.303888e-04
<VARIANCE> 39
 1.070541e+01 4.196915e+01 1.277494e+01 1.167177e+01 1.460436e+01 1.941110e+01 2.078479e+01 2.088851e+01 1.389425e+01 3.772408e+01 2.700725e+01 1.173845e+01 7.957279e-03 3.661872e-01 6.491306e-01 1.047785e+00 1.101072e+00 1.214853e+00 1.373955e+00 1.411787e+00 1.307289e+00 1.509127e+00 1.378793e+00 1.697771e+00 1.025515e+00 5.213520e-05 5.350208e-02 1.033725e-01 1.613476e-01 1.702014e-01 1.938002e-01 2.030285e-01 2.251383e-01 3.167852e-01 1.862292e-01 2.539536e-01 2.254721e-01 1.902697e-01 6.237611e-06
<GCONST> 6.010066e+01
<MIXTURE> 6 2.115152e-01
<MEAN> 39
 2.369047e+00 1.519531e+01 -8.055248e+00 -8.633758e-01 -6.982821e+00 -7.488348e+00 -3.272319e+00 -5.049219e+00 -2.641213e+00 -3.159039e+00 -6.798017e+00 8.350838e-01 8.547108e-01 1.808559e-01 5.670437e-02 3.213686e-02 8.070492e-02 3.512090e-01 1.435464e-01 2.124910e-01 -7.171167e-03 3.417447e-01 2.009648e-01 2.284164e-01 -5.503374e-02 -2.849599e-03 3.407307e-02 -5.449637e-02 1.469219e-01 -2.492464e-02 1.452009e-01 -3.181808e-02 5.249283e-02 1.437028e-01 5.124586e-02 1.525690e-02 8.765206e-02 8.146432e-03 -1.322083e-03
<VARIANCE> 39
 1.507913e+01 2.404841e+01 2.168969e+01 1.599267e+01 1.601477e+01 2.017220e+01 2.186092e+01 3.307404e+01 2.304758e+01 3.791914e+01 2.299642e+01 4.206406e+01 7.780591e-03 1.777721e-01 2.344797e-01 5.967357e-01 6.061041e-01 5.353510e-01 8.235577e-01 1.014310e+00 9.231203e-01 7.987295e-01 9.732589e-01 9.525050e-01 9.119132e-01 3.754082e-05 2.397043e-02 4.142110e-02 9.110756e-02 1.376360e-01 1.097893e-01 1.475027e-01 1.997721e-01 1.211459e-01 1.619976e-01 1.685232e-01 1.439421e-01 1.927963e-01 4.648911e-06
<GCONST> 5.030769e+01
<STATE> 8
<NUMMIXES> 6
<MIXTURE> 1 6.767204e-02
<MEAN> 39
 -4.078001e+00 1.101567e+01 -2.794321e+00 -4.817542e+00 -7.392282e+00 -5.459020e+00 6.480251e+00 7.665318e+00 1.935225e+01 1.819853e+01 9.848679e+00 3.413616e+00 9.702548e-01 2.738570e-01 2.698186e-01 2.046193e-01 6.001169e-02 2.471566e-01 -4.231478e-02 2.964931e-01 2.937849e-01 6.366408e-03 3.951547e-02 1.086924e-01 -7.934711e-01 -3.869065e-04 -8.263861e-02 -4.498633e-02 1.057785e-02 -4.298198e-02 1.318434e-01 1.392037e-02 3.709481e-02 -1.388490e-01 -5.294797e-02 4.776683e-02 7.296982e-02 9.410493e-02 -2.540123e-03
<VARIANCE> 39
 6.143314e+00 1.719461e+01 1.170081e+01 1.477869e+01 8.422017e+00 6.285974e+00 1.266228e+01 1.993266e+01 9.967669e+00 8.387918e+00 1.217806e+01 5.249764e+01 8.178985e-04 5.723341e-01 6.401989e-01 7.457983e-01 6.361110e-01 6.506513e-01 4.536770e-01 4.817376e-01 1.214710e+00 6.404762e-01 7.781740e-01 3.138334e-01 1.440219e+00 6.198609e-05 7.653745e-02 1.627797e-01 1.752900e-01 1.507710e-01 1.151318e-01 1.252170e-01 7.570122e-02 1.467094e-01 8.250669e-02 1.612279e-01 6.602439e-02 1.882312e-01 5.999573e-06
<GCONST> 4.259347e+01
<MIXTURE> 2 1.452238e-01
<MEAN> 39
 -3.351107e+00 1.238950e+01 -1.232731e-02 -2.262246e+00 -6.426458e+00 -5.222497e+00 -6.366831e+00 -8.031034e-01 -2.012413e+00 -5.443145e+00 -7.427830e-01 -1.910082e+00 8.840134e-01 5.932375e-02 -5.971923e-03 1.202697e-02 1.327385e-01 2.372312e-01 7.866283e-02 -9.588298e-02 -3.810994e-02 -2.339980e-01 2.912365e-01 2.207322e-01 -1.979968e-01 -1.087005e-02 2.450528e-01 -1.185262e-01 -3.802836e-02 -2.579335e-02 2.478405e-01 1.550135e-01 1.664619e-01 -1.155424e-01 -7.355820e-02 2.003641e-01 9.920564e-02 1.981482e-02 -5.251646e-03
<VARIANCE> 39
 1.143881e+01 2.977340e+01 1.386150e+01 1.590218e+01 1.147156e+01 2.462014e+01 3.476867e+01 1.825811e+01 1.868853e+01 2.227988e+01 4.488968e+01 3.391625e+01 5.406441e-03 2.960725e-01 2.346920e-01 7.053301e-01 5.789570e-01 7.526538e-01 6.428379e-01 9.186872e-01 9.140912e-01 9.698132e-01 1.281864e+00 8.929490e-01 9.396768e-01 6.113433e-05 5.237305e-02 5.747331e-02 6.740668e-02 9.663853e-02 1.554130e-01 1.522133e-01 2.482672e-01 1.448736e-01 2.473307e-01 2.072642e-01 2.370823e-01 2.393007e-01 1.405585e-05
<GCONST> 5.409508e+01
<MIXTURE> 3 2.130765e-01
<MEAN> 39
 -1.879244e+00 1.708299e+01 -8.905179e-02 -3.563574e+00 -5.377081e+00 -4.598060e+00 -1.028825e+01 -8.266364e-01 1.437424e+00 -5.734242e+00 5.842801e+00 -5.007973e+00 8.771516e-01 -2.331670e-01 -4.345113e-01 2.218536e-01 -1.057243e+00 5.852959e-01 -4.968971e-01 3.364767e-01 -1.151582e-01 5.781773e-01 2.744085e-01 -2.143918e-01 3.651620e-01 2.363003e-03 1.561704e-02 -2.829309e-01 2.539331e-01 -3.213301e-01 2.188193e-01 -6.397741e-02 1.500805e-01 1.304740e-01 4.664755e-03 2.135153e-01 -3.126419e-01 2.544079e-01 -2.438036e-03
<VARIANCE> 39
 1.248922e+01 2.193700e+01 1.763149e+01 1.575319e+01 1.688518e+01 2.121604e+01 2.099395e+01 2.735613e+01 2.869421e+01 2.442290e+01 1.546165e+01 1.409177e+01 4.651797e-03 2.068910e-01 3.167662e-01 4.172692e-01 5.685131e-01 5.851024e-01 7.279390e-01 6.511963e-01 8.526068e-01 1.156391e+00 7.896463e-01 1.031963e+00 5.252039e-01 7.297184e-05 3.678777e-02 6.823258e-02 1.150135e-01 1.269395e-01 9.145319e-02 1.509448e-01 1.622525e-01 1.830607e-01 1.347483e-01 1.325461e-01 9.544092e-02 1.034166e-01 1.209172e-05
<GCONST> 4.790254e+01
<MIXTURE> 4 1.702611e-01
<MEAN> 39
 -9.426879e-01 1.332139e+01 -6.491000e+00 -2.422871e+00 -8.545470e+00 -1.019720e+01 -5.364043e+00 -3.726391e+00 -5.255329e+00 -1.722094e+00 -6.482035e+00 1.374595e-01 8.902889e-01 -4.825468e-01 -5.180252e-01 -3.184955e-01 -1.165420e+00 -7.644452e-02 -9.255932e-01 1.195436e-01 -6.301175e-01 1.312187e-01 -7.980701e-01 5.060125e-02 -8.284195e-01 -1.816166e-03 1.307139e-01 -4.114392e-02 4.554221e-01 -1.505798e-01 5.307085e-01 1.746191e-01 3.373470e-01 4.224660e-01 3.173292e-01 9.160748e-02 3.794357e-01 -8.525144e-03 -3.380903e-03
<VARIANCE> 39
 8.024615e+00 3.012030e+01 1.188725e+01 1.964446e+01 1.184713e+01 2.051022e+01 2.046696e+01 3.322356e+01 2.021305e+01 2.135415e+01 2.731214e+01 4.341348e+01 3.921099e-03 2.491491e-01 3.970531e-01 5.425802e-01 7.963078e-01 1.000006e+00 1.171223e+00 1.394331e+00 1.043620e+00 1.328841e+00 1.092556e+00 1.080111e+00 1.027683e+00 4.865948e-05 4.499196e-02 8.818424e-02 1.350953e-01 2.287208e-01 1.147030e-01 1.738078e-01 2.507541e-01 1.928544e-01 1.875016e-01 2.373843e-01 1.920253e-01 2.115818e-01 6.678070e-06
<GCONST> 5.598173e+01
<MIXTURE> 5 2.150472e-01
<MEAN> 39
 1.383518e+00 1.055037e+01 -2.270167e+00 9.608239e-01 -1.001729e+00 -5.277932e+00 -5.409788e+00 -1.217044e+00 -4.680684e-01 1.347611e+00 6.581580e-01 -1.573633e-01 8.760737e-01 3.066731e-01 -9.128740e-02 6.827242e-02 1.776538e-01 1.166954e-01 -2.141698e-01 1.470972e-02 3.250301e-01 4.839586e-01 2.394227e-01 -7.056734e-02 -1.538499e-01 -1.178053e-02 6.517865e-02 -9.415957e-02 1.128245e-01 -1.055676e-01 -1.869019e-03 6.588890e-02 9.884457e-02 2.810682e-02 -5.348035e-02 -1.629145e-01 -6.146546e-02 -6.087748e-02 -3.083990e-03
<VARIANCE> 39
 5.808441e+00 5.028398e+01 1.330711e+01 1.575831e+01 1.293751e+01 1.959559e+01 3.046217e+01 1.102815e+01 2.325354e+01 2.019746e+01 1.914503e+01 1.357694e+01 3.659437e-03 2.037438e-01 3.265414e-01 4.901561e-01 6.470184e-01 5.596805e-01 5.444237e-01 1.154886e+00 9.147191e-01 7.844809e-01 8.241513e-01 1.007163e+00 7.276273e-01 3.754082e-05 4.554852e-02 6.473044e-02 1.099043e-01 8.408513e-02 8.851059e-02 1.181837e-01 1.819995e-01 1.244036e-01 2.015410e-01 1.906587e-01 1.450063e-01 1.328117e-01 5.637544e-06
<GCONST> 4.607156e+01
<MIXTURE> 6 1.887192e-01
<MEAN> 39
 1.034162e+00 1.266659e+01 -6.610370e+00 -4.894103e-01 -4.148232e+00 -5.376391e+00 -1.627642e+00 -1.749045e+00 2.338264e+00 1.712379e+00 3.291410e-02 5.052740e+00 8.723145e-01 -1.113889e-01 -4.496269e-01 -1.939719e-02 -6.936964e-01 4.024252e-01 -6.372020e-01 -5.077907e-02 -2.658026e-01 1.280615e-02 -1.484438e-01 -4.457613e-03 -1.765665e-01 -1.495225e-03 -6.661817e-03 -3.170037e-01 2.697039e-01 -3.576732e-01 -5.053893e-03 -2.299342e-01 -1.855934e-01 -5.487812e-02 -3.435760e-01 -2.120299e-01 -7.417459e-02 -2.737887e-01 -4.125924e-03
<VARIANCE> 39
 2.791335e+01 3.506337e+01 2.942587e+01 2.831499e+01 3.076494e+01 2.613027e+01 2.282463e+01 2.238322e+01 3.018968e+01 5.102153e+01 9.054321e+01 1.086200e+02 9.302056e-03 6.962656e-01 5.672772e-01 1.252937e+00 1.625592e+00 1.734372e+00 1.542444e+00 1.646328e+00 1.717014e+00 1.848440e+00 1.670875e+00 2.131508e+00 1.940281e+00 7.924881e-05 7.307851e-02 1.075941e-01 1.951739e-01 2.604991e-01 3.391343e-01 2.603315e-01 2.864846e-01 2.703661e-01 2.334711e-01 3.845363e-01 4.424843e-01 5.159212e-01 1.668172e-05
<GCONST> 7.728167e+01
<STATE> 9
<NUMMIXES> 6
<MIXTURE> 1 6.243917e-02
<MEAN> 39
 1.624066e+00 1.233317e+01 -6.476922e+00 -3.377935e+00 -9.003893e+00 -9.492713e+00 -6.434755e+00 -5.625368e+00 -1.795581e+00 -6.516216e+00 -6.385336e+00 -5.097180e+00 7.898425e-01 5.529491e-01 -4.246078e-01 6.154782e-01 -1.537537e-01 8.432950e-01 -6.219691e-02 5.430797e-02 2.208267e-01 1.257582e-01 1.135541e-01 1.114186e+00 9.297152e-01 -4.189081e-03 2.763051e-01 4.536416e-02 4.088011e-01 2.887475e-01 5.360218e-01 5.781528e-01 2.705563e-01 3.874013e-01 3.564948e-01 5.980923e-01 6.074315e-01 5.770133e-01 -1.998189e-03
<VARIANCE> 39
 3.136549e+01 4.266302e+01 4.509846e+01 3.684118e+01 2.550333e+01 4.915881e+01 3.087894e+01 2.285753e+01 3.914052e+01 3.062144e+01 3.825492e+01 5.968719e+01 1.632758e-02 4.859593e-01 5.071430e-01 1.464127e+00 1.225226e+00 1.544066e+00 2.837224e+00 2.288609e+00 2.422309e+00 2.377888e+00 1.981203e+00 2.620086e+00 1.310950e+00 1.844313e-04 1.071578e-01 1.902952e-01 2.863677e-01 1.376147e-01 2.867996e-01 3.155013e-01 4.146320e-01 1.953899e-01 4.364496e-01 5.409931e-01 4.225028e-01 1.998654e-01 3.722246e-05
<GCONST> 8.109580e+01
<MIXTURE> 2 1.256862e-01
<MEAN> 39
 -1.964038e+00 1.155518e+01 -6.675480e+00 -4.848285e+00 -8.310321e+00 -1.212435e+01 -4.469156e+00 -4.210642e+00 -5.351339e+00 -2.223135e+00 -7.338690e+00 -2.414777e+00 8.964449e-01 2.473953e-02 -3.801261e-01 6.281506e-01 -8.768078e-01 8.426169e-01 -2.163405e-01 5.956883e-01 8.512325e-02 3.767571e-01 -1.801559e-01 9.360586e-01 -5.923914e-01 -8.884759e-03 4.318072e-01 1.583181e-02 7.213843e-01 3.417486e-01 6.801488e-01 7.439225e-01 2.175018e-01 5.438242e-01 2.305207e-01 2.974578e-01 4.950083e-01 2.837573e-01 -7.925340e-03
<VARIANCE> 39
 9.740169e+00 2.133268e+01 8.952710e+00 1.471683e+01 9.222249e+00 1.607524e+01 1.979904e+01 3.447342e+01 2.014185e+01 2.287528e+01 2.136047e+01 4.041707e+01 5.011772e-03 2.950895e-01 4.193638e-01 9.338550e-01 1.222994e+00 1.011313e+00 1.035710e+00 1.253357e+00 9.518262e-01 1.739484e+00 1.386557e+00 1.009499e+00 1.353360e+00 1.053731e-04 7.681219e-02 9.219610e-02 1.914067e-01 1.989128e-01 1.579593e-01 1.976306e-01 2.268561e-01 3.110745e-01 2.466081e-01 2.876893e-01 2.593687e-01 3.011877e-01 2.326500e-05
<GCONST> 6.111735e+01
<MIXTURE> 3 3.224578e-01
<MEAN> 39
 -1.948054e+00 1.586148e+01 7.552385e-01 -4.173964e+00 -4.339355e+00 -5.952050e+00 -1.023609e+01 -4.740602e-01 2.485393e-01 -4.440622e+00 5.146695e+00 -4.324387e+00 8.633324e-01 9.790196e-02 -6.541004e-01 5.137614e-01 -1.035745e+00 7.395887e-01 -2.280918e-01 5.811368e-01 7.492774e-02 4.456050e-01 3.458413e-01 -3.456030e-01 4.410889e-01 -8.402126e-03 2.263536e-01 -3.209555e-01 2.380280e-01 1.670645e-02 1.380763e-01 3.409575e-01 3.283842e-01 2.020822e-01 -5.174547e-02 1.654625e-01 -3.363376e-01 1.319226e-01 -6.371659e-03
<VARIANCE> 39
 8.894805e+00 2.153719e+01 1.368837e+01 1.879087e+01 1.725651e+01 2.461868e+01 2.027539e+01 2.324124e+01 2.949941e+01 2.469529e+01 1.552057e+01 1.598129e+01 5.558295e-03 4.041090e-01 5.723261e-01 6.936225e-01 1.384870e+00 8.400180e-01 1.083525e+00 1.133770e+00 1.229469e+00 1.388531e+00 1.577611e+00 1.086343e+00 1.343189e+00 1.504405e-04 4.993002e-02 1.079294e-01 1.588143e-01 2.057117e-01 2.096358e-01 1.574315e-01 2.467418e-01 2.358232e-01 2.674079e-01 2.120367e-01 1.877370e-01 1.769021e-01 2.830667e-05
<GCONST> 6.104807e+01
<MIXTURE> 4 1.587200e-01
<MEAN> 39
 -2.428385e+00 1.195702e+01 -5.382631e+00 -2.418024e+00 -3.918000e+00 -6.432932e+00 1.093499e+00 -1.794763e+00 2.766002e+00 4.051785e+00 4.913376e+00 8.638231e+00 9.085611e-01 -3.289319e-01 -9.204702e-01 4.890774e-01 -1.690567e+00 8.742145e-01 -1.022335e+00 6.955512e-02 -1.440027e-01 -3.885018e-01 -2.530614e-02 -2.659279e-01 -8.628472e-01 -7.831813e-03 2.959828e-01 -3.789109e-01 4.097992e-01 -1.387462e-01 -1.479759e-03 1.285137e-01 -3.943202e-01 1.038024e-01 -3.356776e-01 -3.550277e-01 -4.366827e-01 -5.526046e-01 -8.017664e-03
<VARIANCE> 39
 1.623272e+01 2.422255e+01 2.318783e+01 1.286827e+01 2.632910e+01 2.285707e+01 2.125317e+01 2.532812e+01 4.921040e+01 6.549164e+01 7.224956e+01 1.077236e+02 5.125995e-03 6.436557e-01 6.438963e-01 9.197633e-01 1.466075e+00 1.897379e+00 1.570403e+00 1.705671e+00 1.613700e+00 1.034391e+00 1.938338e+00 2.452991e+00 2.126588e+00 7.633782e-05 7.273273e-02 1.604245e-01 3.058788e-01 2.181585e-01 3.474172e-01 1.929245e-01 3.217858e-01 2.948102e-01 2.642363e-01 4.359761e-01 3.608986e-01 5.147490e-01 2.693867e-05
<GCONST> 7.560988e+01
<MIXTURE> 5 7.154462e-02
<MEAN> 39
 -3.153941e+00 1.449311e+01 -6.743379e+00 -2.321655e+00 -9.092720e+00 -9.440913e+00 -4.580930e+00 -5.150026e+00 -4.187634e+00 -4.787178e+00 -5.973288e+00 2.593708e+00 8.643750e-01 -7.096567e-01 -3.216015e-01 2.327918e-01 -1.810566e+00 1.250740e+00 -4.711832e-01 1.849045e+00 9.782799e-01 1.216896e+00 1.001084e-01 1.143097e+00 -7.165908e-01 -1.251406e-02 1.938793e-01 -1.593288e-01 4.461417e-01 -4.026256e-01 7.141686e-01 2.004076e-01 8.031459e-01 7.129174e-01 5.136515e-01 3.492730e-01 2.146497e-01 -1.716317e-01 -4.034275e-03
<VARIANCE> 39
 1.379200e+01 3.559267e+01 1.219111e+01 3.543256e+01 1.473847e+01 2.302088e+01 1.884128e+01 2.954095e+01 2.302518e+01 1.310313e+01 1.712836e+01 1.625764e+01 3.640430e-03 9.607303e-01 1.339358e+00 1.021838e+00 1.502093e+00 1.394904e+00 2.202379e+00 2.665835e+00 2.105035e+00 1.966952e+00 2.203822e+00 1.870535e+00 1.590050e+00 1.077683e-04 1.618736e-01 2.206956e-01 2.064616e-01 1.917180e-01 1.491940e-01 3.073770e-01 3.248469e-01 5.291953e-01 5.002495e-01 4.364308e-01 2.586212e-01 2.688623e-01 1.631838e-05
<GCONST> 7.214731e+01
<MIXTURE> 6 2.591523e-01
<MEAN> 39
 1.583047e+00 9.297764e+00 -2.161475e+00 -3.051473e-01 -2.780587e+00 -5.159618e+00 -2.827116e+00 -8.620335e-01 -4.990457e-01 -4.875109e-01 -2.164048e+00 1.309393e+00 8.704020e-01 3.809388e-01 -3.722485e-01 2.969140e-01 -8.602506e-02 3.170271e-01 -2.171593e-01 -8.100347e-02 -5.271960e-02 -3.303961e-02 -4.722246e-02 9.348688e-02 -2.694224e-01 -1.509961e-02 6.320211e-02 -1.293322e-01 2.090803e-01 1.645236e-02 9.390687e-02 1.242881e-01 -1.929771e-02 -1.392113e-01 -1.516089e-01 -3.767991e-02 6.784193e-02 -1.441115e-01 -5.197627e-03
<VARIANCE> 39
 1.731133e+01 4.128487e+01 1.694943e+01 1.885837e+01 1.682903e+01 1.880888e+01 2.314244e+01 1.858372e+01 3.210456e+01 2.295781e+01 2.444717e+01 1.925822e+01 4.014262e-03 3.731204e-01 5.049094e-01 9.763754e-01 9.749175e-01 1.427752e+00 1.304293e+00 1.799882e+00 1.449971e+00 1.510436e+00 1.866122e+00 1.686380e+00 1.835280e+00 6.174342e-05 7.796390e-02 8.334155e-02 1.713745e-01 1.250562e-01 1.490106e-01 1.305501e-01 2.986924e-01 2.498672e-01 2.642622e-01 2.119265e-01 2.084947e-01 2.081659e-01 1.606422e-05
<GCONST> 6.294026e+01
<STATE> 10
<NUMMIXES> 6
<MIXTURE> 1 1.578762e-01
<MEAN> 39
 -3.237560e+00 1.280222e+01 -5.358080e+00 -5.717336e+00 -3.487164e+00 -1.252567e+01 3.187420e-01 -4.307893e+00 -1.095841e+00 -2.655445e+00 -3.718847e+00 -3.139312e-01 8.796301e-01 2.152743e-01 -1.287119e+00 1.752804e+00 -2.260674e+00 2.018375e+00 -1.787220e-01 1.144558e+00 1.485024e+00 4.131599e-01 3.874778e-01 7.792138e-01 -8.079486e-01 -1.395010e-02 4.055999e-01 -4.378465e-01 6.339705e-01 4.199816e-01 4.254364e-03 1.091674e+00 -3.334082e-01 5.574287e-01 -1.643172e-01 1.597486e-01 1.277578e-01 1.464912e-01 -8.277976e-03
<VARIANCE> 39
 1.734155e+01 2.833979e+01 1.027841e+01 1.986309e+01 1.905151e+01 2.160649e+01 2.324433e+01 2.507900e+01 2.082694e+01 2.487972e+01 2.411062e+01 4.182660e+01 4.890549e-03 6.172122e-01 1.109469e+00 1.930914e+00 2.114143e+00 1.839514e+00 2.272139e+00 3.071732e+00 2.523784e+00 3.528267e+00 2.124453e+00 1.746188e+00 1.927965e+00 1.479724e-04 1.260394e-01 2.461660e-01 1.678285e-01 4.073392e-01 5.871345e-01 2.492292e-01 3.932634e-01 3.053612e-01 3.652425e-01 5.162032e-01 2.474710e-01 3.123444e-01 6.208486e-05
<GCONST> 7.823089e+01
<MIXTURE> 2 1.199870e-01
<MEAN> 39
 3.738944e+00 1.026552e+01 -4.203200e+00 -2.638304e+00 -3.339453e+00 -8.956044e+00 -5.876565e+00 -2.588918e+00 -5.977364e-01 -3.908957e+00 -1.599089e+00 -2.057459e-02 8.074059e-01 1.364753e-01 -6.259527e-01 1.203586e+00 -8.210780e-02 1.822397e-01 2.997155e-02 6.509817e-02 -5.350715e-03 -4.949248e-01 -6.785470e-02 6.892964e-01 2.977582e-01 -1.553541e-02 -6.677801e-02 1.496072e-01 3.887223e-01 4.192514e-01 1.638637e-01 5.419012e-01 1.639317e-01 1.445754e-01 1.333418e-01 3.727592e-01 3.034753e-02 -6.461498e-03 -7.239335e-03
<VARIANCE> 39
 2.377671e+01 4.727053e+01 3.081799e+01 7.121371e+01 3.810340e+01 3.675414e+01 3.392674e+01 4.186876e+01 3.936422e+01 3.670586e+01 5.117373e+01 5.154420e+01 1.100250e-02 9.282516e-01 8.368379e-01 1.410627e+00 1.810790e+00 2.025313e+00 2.082215e+00 2.064072e+00 1.657118e+00 2.065655e+00 3.839144e+00 3.525998e+00 3.489588e+00 2.015647e-04 9.654957e-02 1.434674e-01 2.290691e-01 4.193649e-01 2.890036e-01 4.060310e-01 3.464377e-01 5.751982e-01 3.956716e-01 3.568892e-01 4.072596e-01 6.722798e-01 4.879689e-05
<GCONST> 8.740954e+01
<MIXTURE> 3 2.706513e-01
<MEAN> 39
 -6.465890e-01 1.355164e+01 1.507143e+00 -3.262086e+00 -3.688306e+00 -4.453685e+00 -8.184345e+00 1.242766e-01 1.043672e+00 -3.267718e+00 4.131139e+00 -3.669957e+00 8.348430e-01 7.187111e-01 -8.013557e-01 5.279701e-01 -2.198194e-01 8.352133e-01 4.099149e-01 1.012654e+00 1.325748e-01 2.425345e-01 3.978311e-01 -6.524498e-01 2.235292e-01 -2.248729e-02 1.430605e-01 -1.415654e-01 9.803073e-02 4.781801e-01 2.517297e-01 3.414102e-01 3.115376e-01 1.407754e-02 -2.519814e-01 3.802821e-02 -2.354059e-01 6.608590e-02 -8.784478e-03
<VARIANCE> 39
 1.022044e+01 3.341846e+01 1.344194e+01 2.803720e+01 1.373620e+01 1.718914e+01 2.973113e+01 1.346304e+01 2.682208e+01 2.841117e+01 1.732529e+01 1.539961e+01 6.519255e-03 5.409614e-01 8.030592e-01 1.501913e+00 1.111035e+00 1.505539e+00 1.195539e+00 1.707794e+00 1.637521e+00 1.717080e+00 2.079543e+00 1.437793e+00 2.066128e+00 1.705300e-04 8.555984e-02 1.016929e-01 1.647025e-01 2.897637e-01 1.786135e-01 1.950348e-01 2.823175e-01 2.261884e-01 3.183649e-01 2.495778e-01 2.453244e-01 1.835102e-01 5.103363e-05
<GCONST> 6.765688e+01
<MIXTURE> 4 1.023905e-01
<MEAN> 39
 -3.325814e+00 1.013230e+01 -5.504346e+00 -5.039762e+00 -4.364506e+00 -7.482790e+00 7.576884e-01 -1.588692e+00 4.782370e+00 8.095078e+00 8.973805e+00 1.309285e+01 9.062759e-01 5.295787e-01 -8.709491e-01 1.136300e+00 -9.082914e-01 9.869158e-01 -3.478094e-01 -2.965227e-01 1.948639e-01 -8.833449e-01 -7.587647e-01 -1.635156e+00 -1.984509e+00 -2.331331e-02 4.814212e-01 -1.651412e-01 4.712250e-01 4.862028e-01 5.597552e-02 5.190320e-01 -1.834334e-01 9.067264e-02 -4.059621e-01 -6.958600e-01 -6.289058e-01 -8.375612e-01 -1.424193e-02
<VARIANCE> 39
 1.801615e+01 2.468813e+01 2.515928e+01 1.289583e+01 3.076016e+01 2.499419e+01 3.095971e+01 3.620643e+01 6.032846e+01 5.958532e+01 3.625644e+01 8.828191e+01 4.801119e-03 8.777925e-01 1.168763e+00 1.713595e+00 1.839079e+00 2.501888e+00 1.172480e+00 1.834131e+00 1.942252e+00 1.290142e+00 3.544945e+00 4.127688e+00 2.639824e+00 1.987390e-04 1.900990e-01 2.425753e-01 3.689609e-01 2.571246e-01 4.880820e-01 3.458200e-01 5.980709e-01 3.917473e-01 3.582762e-01 4.589917e-01 2.710350e-01 6.231521e-01 7.308043e-05
<GCONST> 8.527861e+01
<MIXTURE> 5 2.302499e-01
<MEAN> 39
 4.512015e-02 9.105727e+00 -3.069101e+00 -2.294156e+00 -5.039803e+00 -6.477542e+00 -3.372682e+00 -2.158716e+00 -4.631827e+00 -2.136865e+00 -4.367565e+00 3.208532e-01 8.541228e-01 7.279702e-01 -1.120075e-01 8.052322e-01 2.440116e-01 1.029010e+00 6.071358e-01 1.797785e-01 1.552249e-01 2.827411e-01 2.801190e-01 6.998793e-01 -4.135519e-01 -2.278009e-02 1.967932e-01 -4.803636e-04 3.698168e-01 3.771244e-01 2.452442e-01 3.653811e-01 9.619925e-02 -5.186701e-02 2.329103e-01 9.220247e-02 1.961374e-01 5.391719e-02 -8.296808e-03
<VARIANCE> 39
 1.517435e+01 3.486895e+01 1.555978e+01 1.317951e+01 1.573438e+01 1.760089e+01 2.270284e+01 2.798314e+01 1.584970e+01 1.960378e+01 1.807908e+01 3.170395e+01 4.370146e-03 7.188089e-01 5.585126e-01 1.086482e+00 1.049849e+00 1.494418e+00 1.481737e+00 2.602813e+00 2.359431e+00 2.109182e+00 1.658245e+00 2.145794e+00 2.338157e+00 1.217553e-04 1.048696e-01 9.377655e-02 1.951278e-01 1.283797e-01 2.060481e-01 2.103554e-01 3.020421e-01 3.199994e-01 2.596844e-01 2.263574e-01 2.674092e-01 2.814121e-01 4.336580e-05
<GCONST> 6.843649e+01
<MIXTURE> 6 1.188453e-01
<MEAN> 39
 -3.124976e+00 1.498813e+01 9.726342e-01 -7.434684e+00 -2.138451e+00 -8.310115e+00 -8.553615e+00 7.033811e-02 2.882344e+00 -1.412478e+00 4.538188e+00 -1.839394e+00 8.940437e-01 5.065405e-03 -2.044864e+00 9.085987e-01 -2.530240e+00 6.921697e-01 4.200324e-01 1.018030e+00 1.140625e+00 1.957204e-01 1.250875e+00 -1.110970e+00 8.755485e-01 7.486521e-04 2.956738e-01 -6.588252e-01 1.679725e-01 1.600885e-01 -3.744142e-01 9.012101e-01 2.392621e-01 2.771429e-01 -2.921407e-01 -1.241251e-01 -4.766022e-01 -1.009216e-01 -5.601661e-03
<VARIANCE> 39
 7.917815e+00 2.317810e+01 1.397015e+01 1.402001e+01 1.371579e+01 1.837175e+01 1.896071e+01 2.908699e+01 2.649447e+01 2.289289e+01 2.062337e+01 1.441093e+01 4.469330e-03 3.411216e-01 4.871230e-01 1.419244e+00 7.983721e-01 9.021721e-01 1.279493e+00 1.721895e+00 1.471352e+00 2.276674e+00 1.212749e+00 1.847651e+00 8.126793e-01 1.966839e-04 7.088893e-02 8.286676e-02 9.650519e-02 2.108665e-01 1.321066e-01 2.262901e-01 2.919653e-01 3.177112e-01 2.988474e-01 2.181188e-01 3.281615e-01 2.373008e-01 3.407756e-05
<GCONST> 6.250237e+01
<STATE> 11
<NUMMIXES> 6
<MIXTURE> 1 8.772989e-02
<MEAN> 39
 -2.493699e+00 1.114912e+01 -5.401732e+00 -6.838457e+00 -4.146544e+00 -8.293541e+00 2.244669e+00 3.421058e+00 5.508533e+00 7.409631e+00 4.800420e+00 4.517445e+00 8.471373e-01 1.090638e+00 -1.429760e+00 8.263649e-01 -9.738280e-01 1.912409e+00 1.142438e+00 8.704452e-01 9.905013e-01 -5.027513e-01 -9.824497e-01 -1.435083e+00 -2.335234e+00 -3.672320e-02 2.510958e-01 -1.637293e-01 4.099776e-01 5.987458e-01 3.647489e-01 1.012123e+00 -1.234403e-01 -2.514932e-01 -4.302627e-01 -6.304696e-01 -1.453792e-01 -2.792142e-02 -1.371489e-02
<VARIANCE> 39
 1.268663e+01 3.247859e+01 2.766997e+01 2.127407e+01 2.245929e+01 1.779994e+01 4.121963e+01 2.912301e+01 5.313832e+01 7.076940e+01 4.835417e+01 1.023835e+02 4.639578e-03 1.455448e+00 1.568941e+00 2.633139e+00 2.543077e+00 2.376661e+00 2.087237e+00 6.213083e+00 5.943447e+00 7.743301e+00 9.286649e+00 7.600836e+00 5.654143e+00 5.331274e-04 2.548440e-01 4.038955e-01 2.910135e-01 3.716654e-01 4.650424e-01 3.824408e-01 5.152445e-01 4.148446e-01 6.284995e-01 6.381277e-01 5.125685e-01 8.287312e-01 2.033695e-04
<GCONST> 9.892313e+01
<MIXTURE> 2 1.975131e-01
<MEAN> 39
 -1.226921e+00 1.275482e+01 4.403065e+00 -6.278637e+00 -2.507634e+00 -5.117272e+00 -7.530931e+00 -7.461962e-01 9.600767e-01 -4.959000e+00 2.748301e+00 -3.396185e+00 8.246724e-01 8.835267e-01 -7.128692e-01 1.412371e+00 9.910077e-01 1.227961e+00 1.700919e+00 1.433298e+00 4.523945e-01 2.822260e-01 2.811967e-01 -8.851832e-01 6.070582e-01 -4.199542e-02 -1.187106e-01 -1.932048e-02 -1.812773e-01 9.183063e-01 1.766129e-01 5.223287e-01 1.833215e-01 6.014268e-02 -2.557313e-01 1.459160e-01 2.064683e-02 3.559217e-02 -1.613385e-02
<VARIANCE> 39
 9.903722e+00 2.544933e+01 1.065111e+01 3.246969e+01 1.761959e+01 2.096680e+01 2.457040e+01 2.206497e+01 3.350156e+01 2.214766e+01 1.891916e+01 2.538087e+01 3.606492e-03 8.487106e-01 1.110966e+00 1.313583e+00 1.505527e+00 1.897311e+00 1.456986e+00 2.242171e+00 2.206293e+00 1.999902e+00 2.210101e+00 2.174482e+00 2.320530e+00 2.147155e-04 1.448794e-01 2.292952e-01 1.309692e-01 3.329254e-01 3.159133e-01 2.584086e-01 3.741695e-01 3.494617e-01 3.407870e-01 4.357448e-01 2.901123e-01 3.955688e-01 6.653360e-05
<GCONST> 7.554885e+01
<MIXTURE> 3 3.143796e-01
<MEAN> 39
 2.754771e+00 9.028380e+00 -1.565565e+00 -4.507594e-01 -1.884174e+00 -3.595424e+00 -3.304615e+00 2.401228e-01 -8.817884e-01 1.744518e-01 1.291832e-01 -8.273747e-01 7.911440e-01 9.129624e-01 -2.706400e-01 5.536038e-01 6.475661e-01 8.042102e-01 6.296545e-01 5.704898e-01 -3.581572e-02 1.022223e-01 5.092618e-01 1.772911e-01 -3.610748e-03 -2.417170e-02 -1.625112e-01 -8.082320e-03 2.140588e-01 2.681918e-01 9.955271e-02 5.542399e-02 1.664355e-02 -1.700627e-01 1.783266e-02 -1.307706e-01 -3.970030e-02 5.139148e-02 -4.652409e-03
<VARIANCE> 39
 1.594140e+01 4.647139e+01 1.667166e+01 1.919741e+01 1.866428e+01 2.269661e+01 2.877011e+01 1.764852e+01 2.353706e+01 2.446426e+01 3.079231e+01 1.930155e+01 8.728765e-03 7.281029e-01 7.405236e-01 1.673379e+00 1.213425e+00 1.298031e+00 1.478219e+00 2.350089e+00 1.603001e+00 1.996968e+00 2.428520e+00 2.491124e+00 1.890519e+00 3.079508e-04 8.820967e-02 1.380640e-01 1.592879e-01 1.677855e-01 2.068157e-01 2.646843e-01 2.649443e-01 2.812527e-01 2.955379e-01 3.305684e-01 3.363029e-01 2.484813e-01 3.565667e-05
<GCONST> 7.286420e+01
<MIXTURE> 4 8.542974e-02
<MEAN> 39
 -5.259353e+00 8.939067e+00 -1.828785e+00 -9.719109e+00 1.311122e+00 -1.240044e+01 1.047892e+00 -2.459447e+00 -1.577461e+00 -6.175119e-01 -2.107482e+00 1.415025e+00 8.719293e-01 6.081973e-01 -2.570648e+00 2.574689e+00 -2.201600e+00 1.675670e-01 1.467473e+00 -8.657035e-01 1.463205e+00 -2.068631e-01 -3.791570e-01 4.103308e-01 -8.257291e-01 -9.298486e-03 5.442755e-01 -4.647146e-01 1.174291e-01 1.054293e+00 -1.158607e+00 9.690163e-01 -3.575637e-01 -7.016784e-02 1.638437e-01 -2.740901e-01 1.739997e-01 9.805752e-02 -1.476123e-03
<VARIANCE> 39
 1.967044e+01 2.566428e+01 1.770957e+01 1.639279e+01 3.067328e+01 3.676576e+01 1.662110e+01 1.811795e+01 1.520570e+01 3.405763e+01 4.968290e+01 6.799051e+01 7.655518e-03 7.013164e-01 1.251528e+00 1.955249e+00 1.304457e+00 2.235582e+00 3.061198e+00 3.448298e+00 2.469029e+00 2.326917e+00 3.285981e+00 1.397441e+00 3.035398e+00 1.364852e-04 1.243472e-01 2.767535e-01 2.155048e-01 4.896624e-01 4.862255e-01 3.138920e-01 4.965257e-01 4.547449e-01 3.326788e-01 3.492593e-01 2.437506e-01 4.335546e-01 8.781939e-06
<GCONST> 8.023238e+01
<MIXTURE> 5 2.104227e-01
<MEAN> 39
 1.427575e+00 1.061898e+01 -2.745394e+00 -4.950287e+00 -3.050013e+00 -9.684931e+00 -3.184314e+00 -3.499272e+00 -3.725040e+00 -1.456449e+00 -2.396340e+00 -4.424412e-01 8.486521e-01 7.610751e-01 -6.134495e-01 2.165880e+00 6.654457e-01 1.305441e+00 9.809987e-01 -2.096293e-01 3.312685e-01 -1.090860e-01 6.379683e-02 4.138060e-01 -8.937016e-01 -3.936690e-02 -1.979744e-01 -1.578737e-01 3.570403e-01 9.164986e-01 1.329535e-01 8.345661e-01 7.949674e-02 2.467626e-01 1.482989e-01 1.719578e-01 1.305366e-01 2.623118e-01 -1.893689e-02
<VARIANCE> 39
 1.504762e+01 2.739947e+01 1.228737e+01 3.099868e+01 2.126805e+01 2.228894e+01 2.575904e+01 3.824205e+01 2.155767e+01 2.323558e+01 2.723843e+01 5.007755e+01 6.030813e-03 1.058526e+00 7.658405e-01 1.569118e+00 1.424257e+00 1.933179e+00 2.043591e+00 2.332687e+00 3.446744e+00 2.432982e+00 2.965263e+00 3.552945e+00 3.281722e+00 2.264210e-04 1.834691e-01 1.787869e-01 2.388017e-01 4.357936e-01 3.570336e-01 3.536265e-01 4.052843e-01 4.688838e-01 4.268820e-01 3.533511e-01 3.940136e-01 4.179603e-01 9.972267e-05
<GCONST> 8.279256e+01
<MIXTURE> 6 1.045232e-01
<MEAN> 39
 -2.547483e+00 1.183415e+01 2.474603e+00 -1.172171e+01 -9.311378e-01 -6.858368e+00 -7.304751e+00 2.741158e+00 2.013577e+00 3.832503e-01 2.184182e+00 -5.911031e-01 8.818655e-01 7.489880e-01 -2.920241e+00 1.277439e+00 -1.778187e+00 -1.874147e-01 2.104314e+00 1.133506e+00 1.371717e+00 1.887078e-01 7.885301e-01 -1.652531e+00 5.403202e-01 -1.308289e-02 2.318166e-01 -3.940164e-01 -1.730971e-01 1.108360e+00 -4.705378e-01 7.702131e-01 3.738070e-01 -2.777519e-01 -2.643318e-01 -3.885213e-01 -3.029581e-01 -2.785252e-01 -9.669761e-03
<VARIANCE> 39
 8.097034e+00 3.095928e+01 1.828790e+01 1.525609e+01 1.353574e+01 1.726445e+01 1.806763e+01 2.563918e+01 2.154912e+01 1.920088e+01 2.280716e+01 1.390134e+01 5.009004e-03 6.463920e-01 6.996390e-01 1.901914e+00 1.003334e+00 9.082677e-01 1.429057e+00 2.304142e+00 1.664170e+00 3.595350e+00 1.409872e+00 2.384302e+00 1.406778e+00 3.593382e-04 9.786312e-02 1.827733e-01 1.461409e-01 2.366257e-01 3.049071e-01 2.253024e-01 2.739004e-01 4.626204e-01 3.080857e-01 3.525119e-01 4.770769e-01 2.102783e-01 8.578138e-05
<GCONST> 7.125702e+01
<STATE> 12
<NUMMIXES> 6
<MIXTURE> 1 8.209120e-02
<MEAN> 39
 4.215471e-02 1.011941e+01 -2.752223e+00 -9.067702e+00 -1.003997e+00 -5.827922e+00 3.429936e+00 6.078582e+00 4.313215e+00 4.396406e+00 1.444758e+00 1.068078e-02 7.931985e-01 9.378776e-01 -1.778278e+00 1.176992e+00 2.035764e-01 1.824404e+00 2.794984e+00 1.250175e+00 7.785112e-01 -5.535402e-01 -1.222353e+00 -1.236630e+00 -1.732721e+00 -5.480680e-02 -2.808994e-01 -1.809346e-01 4.538000e-02 9.310983e-01 -6.319633e-02 7.188694e-01 -2.473578e-01 -6.908558e-01 -4.513735e-01 -3.503435e-01 2.004652e-01 5.196014e-01 -1.314847e-02
<VARIANCE> 39
 9.557752e+00 2.750973e+01 2.830571e+01 3.821340e+01 2.630797e+01 2.259674e+01 5.160106e+01 3.186763e+01 5.271601e+01 5.441652e+01 3.917356e+01 6.649329e+01 4.985833e-03 1.950055e+00 2.942127e+00 2.926862e+00 3.510437e+00 3.392384e+00 2.977258e+00 5.327224e+00 4.858348e+00 5.179035e+00 6.060399e+00 6.097011e+00 7.100669e+00 1.019450e-03 1.922880e-01 3.512550e-01 4.307850e-01 4.090674e-01 4.420451e-01 4.599285e-01 5.863447e-01 5.890976e-01 1.285383e+00 1.035948e+00 8.617093e-01 6.204646e-01 2.938000e-04
<GCONST> 1.029629e+02
<MIXTURE> 2 1.501742e-01
<MEAN> 39
 7.632101e-01 1.149312e+01 7.174294e+00 -5.578555e+00 -2.241936e+00 -6.379115e-01 -4.827935e+00 5.574970e-01 2.063526e+00 -3.849482e+00 1.104240e+00 -1.562600e+00 7.661101e-01 6.730183e-01 -6.120377e-01 8.628401e-01 2.457916e+00 1.392505e+00 2.096503e+00 1.291889e+00 2.048810e-01 -4.822476e-01 -5.823039e-02 -6.554402e-01 3.770166e-01 -6.659681e-02 -6.109111e-01 -1.259606e-01 -7.424008e-01 6.081464e-01 7.174475e-02 -1.826785e-01 -7.596840e-02 -2.675187e-02 -1.999179e-01 3.051930e-02 3.180235e-01 -2.916010e-02 -1.899868e-02
<VARIANCE> 39
 1.081264e+01 2.663924e+01 1.450303e+01 3.274659e+01 1.870645e+01 1.590125e+01 2.158132e+01 2.800632e+01 2.904013e+01 3.215783e+01 1.920869e+01 2.291223e+01 3.934393e-03 1.216255e+00 1.474575e+00 1.348672e+00 2.249758e+00 1.708802e+00 1.771956e+00 2.118680e+00 2.346800e+00 1.731721e+00 2.374941e+00 2.323674e+00 2.621375e+00 3.305649e-04 1.608441e-01 4.394332e-01 2.529607e-01 3.597133e-01 3.289169e-01 2.316292e-01 3.362521e-01 4.020731e-01 3.695256e-01 5.919213e-01 4.084899e-01 3.734068e-01 1.975018e-04
<GCONST> 8.105118e+01
<MIXTURE> 3 2.962607e-01
<MEAN> 39
 3.832946e+00 9.495508e+00 2.702826e-01 2.476810e+00 1.968291e+00 -4.017841e+00 -2.626425e+00 -6.268403e-01 -1.295910e+00 -1.767180e+00 -3.093076e+00 -3.203552e+00 7.380185e-01 1.526535e-01 -5.410961e-01 1.406498e+00 1.267822e+00 1.130340e+00 7.064391e-01 2.158279e-01 -7.099743e-01 -4.524285e-01 -4.187850e-01 -3.598529e-01 -1.104394e-01 -2.832522e-02 -3.233822e-01 -6.811739e-02 1.133211e-01 7.484197e-02 -6.349881e-02 1.167791e-01 -7.155959e-02 2.125755e-02 1.389363e-01 1.583908e-01 3.004047e-01 2.775511e-01 -6.557931e-03
<VARIANCE> 39
 1.320759e+01 4.396218e+01 1.984207e+01 3.060487e+01 3.640549e+01 2.196544e+01 3.695833e+01 2.251798e+01 2.473318e+01 1.827884e+01 2.851099e+01 2.852260e+01 1.289381e-02 8.256002e-01 6.466296e-01 1.655087e+00 1.706661e+00 1.703201e+00 2.493975e+00 3.150799e+00 2.426464e+00 1.820586e+00 2.071752e+00 2.854339e+00 2.290383e+00 2.701188e-04 9.938689e-02 1.129640e-01 3.297698e-01 2.158362e-01 3.663644e-01 2.661330e-01 4.468434e-01 3.777876e-01 3.221217e-01 3.128719e-01 3.813045e-01 3.804582e-01 7.629802e-05
<GCONST> 8.025711e+01
<MIXTURE> 4 1.612907e-01
<MEAN> 39
 6.407183e+00 1.091662e+01 -2.007088e+00 8.163447e-01 -2.023038e+00 -3.348854e+00 -2.794325e+00 -4.579813e-01 2.921937e+00 4.285232e+00 4.087105e+00 2.412488e+00 7.145132e-01 3.894213e-01 -3.192787e-01 7.300270e-01 6.011755e-01 5.518196e-01 2.553664e-01 -7.158209e-02 -9.537143e-02 4.525646e-01 7.650822e-03 2.043781e-01 -1.198027e-03 -3.367514e-02 -5.401430e-01 -2.946401e-01 2.275027e-01 -1.846973e-02 3.976284e-02 -4.745758e-02 -1.168922e-01 -1.125808e-01 -3.441555e-01 -6.193924e-01 -4.113091e-01 -2.868951e-01 -8.289053e-03
<VARIANCE> 39
 1.133091e+01 4.894193e+01 1.966153e+01 1.550744e+01 2.189764e+01 3.977538e+01 4.105296e+01 2.489734e+01 2.644159e+01 2.868820e+01 2.348000e+01 3.968452e+01 1.496885e-02 9.970168e-01 1.048444e+00 1.630314e+00 1.516107e+00 1.640272e+00 2.032430e+00 2.406124e+00 1.896137e+00 1.939827e+00 2.172080e+00 3.129765e+00 2.323033e+00 6.781169e-04 1.013446e-01 1.383753e-01 2.816954e-01 2.794377e-01 3.686573e-01 6.153077e-01 2.947842e-01 2.599211e-01 3.570172e-01 3.271223e-01 3.802096e-01 3.622778e-01 1.089066e-04
<GCONST> 8.236234e+01
<MIXTURE> 5 1.675756e-01
<MEAN> 39
 2.812454e+00 1.041135e+01 1.656747e+00 -2.891976e+00 -1.596846e+00 -6.828897e+00 -3.376862e+00 -1.490337e+00 -2.876253e+00 -9.997541e-01 -1.113321e+00 -1.645902e+00 7.952607e-01 -1.589769e-02 -9.803634e-01 2.152364e+00 2.474466e+00 1.468109e+00 2.187328e+00 2.928483e-01 6.441194e-01 1.328459e-01 3.405297e-01 5.272424e-01 -2.805849e-01 -6.534629e-02 -8.278922e-01 -4.117079e-01 -2.174662e-01 7.101725e-01 2.133649e-01 7.710428e-01 2.997672e-01 3.270710e-01 2.878138e-01 2.606988e-01 2.928528e-01 4.520928e-01 -2.821045e-02
<VARIANCE> 39
 1.212617e+01 2.516196e+01 1.702567e+01 2.564231e+01 1.847025e+01 1.922217e+01 1.993515e+01 4.205789e+01 2.405029e+01 1.752127e+01 2.996311e+01 3.845389e+01 5.375212e-03 1.279987e+00 1.543447e+00 1.537485e+00 1.772521e+00 1.844238e+00 2.380167e+00 2.433419e+00 2.433165e+00 2.672129e+00 3.247930e+00 2.961781e+00 2.771245e+00 4.422445e-04 1.026793e-01 1.772045e-01 2.942786e-01 3.772814e-01 3.663121e-01 3.218102e-01 4.449279e-01 6.271387e-01 4.541071e-01 3.103675e-01 5.373185e-01 4.244834e-01 6.102830e-05
<GCONST> 8.267042e+01
<MIXTURE> 6 1.426067e-01
<MEAN> 39
 -2.949127e+00 5.818966e+00 2.870416e+00 -1.276918e+01 -6.375640e-01 -5.726079e+00 -4.897409e+00 1.903603e+00 -4.553343e-01 -7.456793e-01 4.050554e-02 -5.001171e-01 8.760217e-01 1.002211e+00 -2.558426e+00 1.795253e+00 -8.494602e-03 -1.204481e+00 2.302181e+00 1.690460e-01 2.757455e-01 -3.461962e-02 -2.456222e-01 -4.870416e-01 -1.494911e-01 -1.050039e-02 3.103804e-01 8.778418e-03 -5.265073e-01 1.351579e+00 -5.912304e-01 2.592753e-02 3.974149e-01 -3.970367e-01 9.977866e-02 -1.368085e-01 -3.109745e-02 5.454366e-02 -2.451108e-04
<VARIANCE> 39
 1.757809e+01 2.727931e+01 2.955889e+01 1.828598e+01 2.012646e+01 3.322536e+01 3.849721e+01 3.150109e+01 2.340849e+01 3.101773e+01 3.871865e+01 3.594820e+01 6.373223e-03 8.476100e-01 3.041466e+00 2.272748e+00 1.632578e+00 3.333396e+00 3.383816e+00 4.755876e+00 3.144212e+00 2.481667e+00 3.299079e+00 3.983202e+00 2.850739e+00 2.210274e-04 1.705932e-01 2.265540e-01 3.640777e-01 6.392348e-01 3.227949e-01 3.916968e-01 4.742458e-01 5.770549e-01 4.082865e-01 5.505124e-01 3.049597e-01 3.891598e-01 2.577877e-05
<GCONST> 8.775502e+01
<STATE> 13
<NUMMIXES> 6
<MIXTURE> 1 5.953028e-02
<MEAN> 39
 -1.451667e+00 6.486743e+00 -4.402981e+00 -1.307522e+01 3.069326e+00 8.910315e-01 8.114913e+00 1.058442e+01 3.487901e+00 -5.384375e-01 4.983773e-01 -4.427634e+00 7.184315e-01 1.151836e-03 -2.896647e+00 8.061225e-01 2.614077e-01 1.591133e+00 4.671389e+00 1.220225e+00 -3.887110e-01 -7.653620e-01 -1.825028e+00 9.195536e-01 1.420578e+00 -5.003448e-02 -1.436297e-01 -1.409678e-01 4.524081e-02 1.141253e+00 -5.539493e-01 -2.467938e-01 -9.295670e-01 -1.430552e+00 -2.976823e-01 3.492638e-02 1.009322e-01 9.172764e-01 -3.259012e-03
<VARIANCE> 39
 1.118822e+01 2.734105e+01 1.519575e+01 2.439749e+01 2.842261e+01 2.530640e+01 4.188354e+01 2.296486e+01 5.130501e+01 4.585731e+01 3.126470e+01 2.002759e+01 1.089854e-02 4.455513e-01 2.843910e+00 2.490538e+00 1.940804e+00 3.279745e+00 3.523751e+00 3.435254e+00 2.773071e+00 5.810463e+00 4.560631e+00 7.622520e+00 5.462025e+00 1.476034e-03 1.776836e-01 4.070744e-01 2.664725e-01 4.118648e-01 3.670543e-01 6.007534e-01 7.341009e-01 8.983181e-01 1.730601e+00 1.212426e+00 6.093840e-01 4.757434e-01 2.600521e-04
<GCONST> 9.793226e+01
<MIXTURE> 2 1.069221e-01
<MEAN> 39
 4.406634e+00 7.528821e+00 3.574892e-01 -1.065009e+00 -1.805785e+00 -5.541492e+00 -1.042682e+00 1.808300e-01 1.778229e-02 3.787363e+00 2.525246e+00 2.309764e+00 7.095539e-01 -7.042863e-01 -1.069417e+00 1.942846e+00 2.015183e+00 1.602198e+00 2.327391e+00 8.926915e-01 3.407658e-01 -6.918830e-01 -3.516312e-01 -7.007345e-02 -8.973124e-01 -1.006171e-01 -8.203068e-01 -3.579238e-01 -1.660485e-01 2.901283e-01 3.180678e-01 5.685043e-01 2.432559e-01 2.757942e-01 2.991814e-01 1.369339e-02 4.872016e-02 9.297220e-02 -2.322130e-02
<VARIANCE> 39
 8.937936e+00 4.627460e+01 1.757883e+01 2.138577e+01 2.570336e+01 2.906578e+01 3.665954e+01 2.210854e+01 3.876254e+01 3.910082e+01 4.679332e+01 4.728402e+01 1.080834e-02 1.603033e+00 1.752578e+00 1.586227e+00 2.833278e+00 3.621370e+00 2.308844e+00 3.252385e+00 3.499005e+00 3.172283e+00 4.974397e+00 3.737760e+00 4.238333e+00 1.450332e-03 1.426096e-01 2.925759e-01 3.522203e-01 2.048999e-01 4.052797e-01 3.988428e-01 5.435563e-01 3.944985e-01 5.256644e-01 7.469981e-01 9.208157e-01 6.186514e-01 1.396850e-04
<GCONST> 9.397897e+01
<MIXTURE> 3 2.770989e-01
<MEAN> 39
 1.773270e+00 1.123345e+01 6.096092e+00 2.374885e+00 1.809701e+00 8.571188e-02 -2.056281e+00 1.244446e+00 -6.792623e-01 -2.934970e+00 -1.730907e-01 -3.739630e+00 6.793566e-01 -1.071018e+00 -1.268351e+00 4.660768e-01 2.804962e+00 1.516107e+00 2.088989e+00 9.697013e-01 3.372544e-01 1.298935e-01 2.427581e-01 4.222451e-01 9.124624e-01 -8.910412e-02 -8.283743e-01 -5.572326e-01 -7.895930e-01 -3.400932e-01 -3.102580e-01 -2.636514e-01 -1.358708e-01 4.644280e-02 2.915049e-01 3.493460e-01 4.142573e-01 4.081994e-01 -2.210159e-02
<VARIANCE> 39
 1.535715e+01 3.613693e+01 1.741874e+01 3.324082e+01 3.017006e+01 2.450868e+01 2.689997e+01 2.094441e+01 3.665614e+01 2.961827e+01 3.061766e+01 3.000751e+01 6.809592e-03 1.117976e+00 2.074089e+00 1.856398e+00 2.681523e+00 1.847369e+00 3.150308e+00 2.412531e+00 2.384046e+00 2.117123e+00 3.036532e+00 1.986479e+00 1.759751e+00 1.106810e-03 1.829886e-01 1.873700e-01 3.237617e-01 3.565347e-01 3.944013e-01 4.255867e-01 5.081416e-01 4.047725e-01 4.784797e-01 4.610152e-01 4.944549e-01 5.152603e-01 7.744817e-05
<GCONST> 8.714078e+01
<MIXTURE> 4 1.158087e-01
<MEAN> 39
 -2.524464e+00 -7.348918e-03 4.824502e+00 -1.247453e+01 -6.249589e+00 4.030385e-02 -2.441902e+00 1.361817e+00 2.040516e+00 -3.493717e-01 -2.207163e+00 1.290472e+00 8.846961e-01 1.557775e+00 -3.521752e+00 1.518198e-01 2.581602e+00 -2.615029e+00 1.589370e+00 2.185425e+00 -5.960943e-01 -5.286280e-01 1.923577e-01 -1.205097e+00 -4.765356e-01 -6.210540e-03 3.480100e-01 3.791919e-01 -1.071606e+00 1.428762e+00 4.234783e-01 -1.143033e+00 2.192275e-01 -1.742628e-01 -2.902825e-01 -6.625413e-02 2.103464e-01 -6.838190e-02 1.061903e-03
<VARIANCE> 39
 1.536955e+01 2.715606e+01 2.554592e+01 1.873310e+01 1.645572e+01 5.631933e+01 4.621727e+01 3.191543e+01 3.664149e+01 2.518876e+01 3.880551e+01 4.716045e+01 7.157665e-03 9.664723e-01 1.141059e+00 1.349545e+00 2.245023e+00 1.900106e+00 2.857100e+00 2.536686e+00 3.861702e+00 3.151147e+00 2.690885e+00 4.230414e+00 2.262025e+00 2.413913e-04 1.357549e-01 1.318609e-01 4.118867e-01 3.359273e-01 3.640206e-01 6.046488e-01 4.607515e-01 5.224912e-01 8.898444e-01 3.273491e-01 4.464199e-01 4.287424e-01 3.594963e-05
<GCONST> 8.659865e+01
<MIXTURE> 5 2.365500e-01
<MEAN> 39
 4.959980e+00 9.422374e+00 3.188531e+00 3.954548e+00 -6.998719e-01 -4.536911e+00 -6.597480e+00 -6.538508e+00 -3.860550e+00 -1.983398e+00 -2.314710e+00 1.939135e-01 6.777489e-01 -8.589268e-01 -1.050185e+00 1.556240e+00 1.342442e+00 1.153123e+00 1.174383e+00 2.552312e-01 1.392659e-01 5.303121e-02 2.319430e-01 4.347037e-01 1.461811e-02 -7.259722e-02 -6.445348e-01 -5.055549e-01 -3.247600e-01 -4.455470e-02 2.383665e-01 5.905240e-01 8.192024e-01 1.030640e+00 5.930154e-01 3.959988e-01 2.090827e-01 1.069964e-01 -2.318017e-02
<VARIANCE> 39
 1.844313e+01 3.664901e+01 1.711822e+01 2.457608e+01 2.040747e+01 1.947315e+01 2.572749e+01 2.577141e+01 2.724104e+01 1.751215e+01 2.998564e+01 2.635353e+01 1.151436e-02 6.927071e-01 1.204646e+00 1.385828e+00 1.274280e+00 1.607432e+00 2.360938e+00 2.071716e+00 2.581760e+00 2.301136e+00 2.843904e+00 2.355879e+00 2.026405e+00 9.132355e-04 2.999916e-01 1.803588e-01 2.313505e-01 2.498154e-01 2.586747e-01 2.996896e-01 3.428451e-01 4.778428e-01 4.210097e-01 4.435728e-01 4.157761e-01 5.352144e-01 8.186050e-05
<GCONST> 8.220925e+01
<MIXTURE> 6 2.040895e-01
<MEAN> 39
 1.385450e+00 8.928491e+00 3.455085e+00 -4.005451e+00 -5.129189e-01 -1.046391e+00 -4.660686e+00 -1.669952e+00 -1.204619e+00 -3.628733e+00 -1.303197e+00 -1.717480e+00 7.441679e-01 5.588691e-01 -3.426554e-01 8.151937e-01 8.513520e-01 3.105665e-01 1.041529e+00 -1.247883e-01 -7.818802e-02 3.164065e-03 -2.555547e-01 -1.754800e-01 2.360114e-01 -2.414123e-02 -4.812096e-01 8.664526e-02 -6.248416e-01 -8.504596e-02 -3.153467e-01 -5.825989e-01 2.452607e-01 1.354445e-01 2.698712e-01 3.792898e-01 2.128079e-01 2.034023e-01 1.159101e-02
<VARIANCE> 39
 1.356554e+01 3.105210e+01 3.794058e+01 2.162627e+01 2.684712e+01 2.189519e+01 3.725290e+01 3.181160e+01 2.847044e+01 2.481182e+01 2.108036e+01 2.559162e+01 1.129695e-02 7.532037e-01 1.326908e+00 1.512128e+00 1.947355e+00 2.120672e+00 1.735593e+00 2.512433e+00 2.235731e+00 2.117525e+00 2.502461e+00 2.433114e+00 3.157623e+00 4.980654e-04 1.963723e-01 1.661027e-01 5.855002e-01 3.267774e-01 5.014134e-01 4.114211e-01 5.901290e-01 4.405142e-01 4.095322e-01 4.817666e-01 5.337560e-01 6.643054e-01 9.973488e-05
<GCONST> 8.658676e+01
<STATE> 14
<NUMMIXES> 6
<MIXTURE> 1 5.995228e-02
<MEAN> 39
 -2.292435e+00 1.553333e+00 -3.250380e+00 -1.074107e+01 7.342067e+00 1.152970e+01 1.186238e+01 8.708893e+00 1.720770e-02 -4.462012e+00 2.389938e+00 2.171269e+00 6.228464e-01 -3.448015e-01 -3.043261e+00 1.233461e+00 2.591707e+00 6.899188e-01 2.989459e+00 -1.465323e+00 -2.471665e+00 -2.943963e-01 -2.830958e-01 1.046997e+00 2.126125e+00 -5.286609e-02 -9.083742e-02 1.299999e-01 -1.744531e-02 8.102481e-01 -9.475867e-01 -1.628007e+00 -1.069410e+00 -9.384769e-01 4.988177e-01 1.127715e+00 -3.206187e-01 -3.573639e-01 1.639729e-02
<VARIANCE> 39
 7.217583e+00 2.912632e+01 5.304367e+01 6.262173e+01 4.763916e+01 4.433927e+01 8.632600e+01 3.029392e+01 2.598060e+01 8.373183e+01 6.961295e+01 2.105472e+01 1.727063e-02 4.876444e-01 2.973364e+00 2.380623e+00 1.984556e+00 3.427666e+00 5.124546e+00 7.624402e+00 4.359269e+00 8.692758e+00 6.972742e+00 4.126905e+00 6.446271e+00 3.037270e-03 1.522234e-01 2.362952e-01 7.935666e-01 6.271566e-01 6.484503e-01 5.368546e-01 1.382906e+00 8.226720e-01 1.845049e+00 2.285312e+00 2.265769e+00 1.090575e+00 2.069380e-04
<GCONST> 1.103686e+02
<MIXTURE> 2 2.674166e-01
<MEAN> 39
 -1.417608e+00 9.026829e+00 6.678203e+00 7.066756e+00 4.948315e+00 1.892771e+00 -1.827110e+00 8.926482e-01 -1.356858e+00 -2.927529e+00 5.527768e-01 -2.398741e+00 5.835990e-01 -2.368019e+00 -2.626476e+00 -6.249345e-01 1.717779e+00 1.040375e+00 1.764523e+00 9.642079e-01 9.157326e-01 7.933128e-01 9.896972e-01 1.072838e+00 1.727024e+00 -1.229129e-01 -4.474404e-01 -4.762163e-01 -8.112127e-01 -9.663429e-01 -6.297625e-01 -4.465247e-01 -2.257191e-02 1.546310e-01 4.326115e-01 3.877952e-01 2.923846e-01 2.978957e-01 -1.094639e-02
<VARIANCE> 39
 1.914953e+01 3.988157e+01 1.298735e+01 2.439480e+01 2.405373e+01 2.831097e+01 2.539088e+01 2.633978e+01 4.580756e+01 3.118963e+01 3.375137e+01 2.826693e+01 9.609922e-03 8.481635e-01 1.473031e+00 2.153894e+00 2.703395e+00 2.620836e+00 3.661563e+00 2.765558e+00 2.300035e+00 2.263116e+00 3.119837e+00 2.066433e+00 1.897112e+00 1.139855e-03 2.239777e-01 2.923384e-01 2.471313e-01 3.194436e-01 3.443067e-01 4.835505e-01 5.359899e-01 5.165507e-01 4.881985e-01 6.162897e-01 4.998057e-01 5.231669e-01 1.741151e-04
<GCONST> 8.968246e+01
<MIXTURE> 3 2.218014e-01
<MEAN> 39
 1.841319e+00 8.384476e+00 3.896307e+00 -2.106481e+00 4.829719e-01 2.946225e-01 -3.371112e+00 -3.184144e-01 -3.466792e-01 -2.232215e+00 9.811305e-01 -5.642107e-01 6.632054e-01 -6.017818e-01 -5.493467e-01 -2.349025e-01 6.490307e-01 2.256531e-01 1.555896e-01 4.149359e-01 3.013149e-01 5.240432e-01 2.848375e-01 5.298828e-01 2.789111e-01 -3.781306e-02 -5.945225e-01 -6.313432e-02 -7.282035e-01 -5.050610e-01 -2.714065e-01 -6.461546e-01 2.979718e-01 2.916839e-01 4.108238e-01 4.722273e-01 9.304399e-02 -5.303520e-02 1.162532e-02
<VARIANCE> 39
 1.517373e+01 4.106462e+01 3.313857e+01 3.589360e+01 3.888083e+01 3.195696e+01 4.510233e+01 3.953628e+01 3.752599e+01 5.136876e+01 4.018974e+01 3.217385e+01 1.900896e-02 8.192437e-01 1.439349e+00 1.671589e+00 2.232299e+00 1.537832e+00 1.631389e+00 1.643921e+00 2.143887e+00 2.000123e+00 1.829111e+00 2.162101e+00 1.815543e+00 3.242782e-03 2.081591e-01 4.895129e-01 6.992603e-01 5.559289e-01 7.341653e-01 5.889372e-01 9.293460e-01 7.847611e-01 6.404237e-01 7.146983e-01 7.898088e-01 9.841377e-01 3.602416e-04
<GCONST> 9.781956e+01
<MIXTURE> 4 1.080031e-01
<MEAN> 39
 -6.099655e-01 1.980418e+00 3.697785e-01 -7.180012e+00 -5.042611e+00 1.722819e+00 8.410981e-02 -8.301714e-01 5.208561e-01 -2.718220e-01 -5.715540e+00 -1.380119e+00 8.584077e-01 1.542680e-01 -1.204314e+00 -3.602277e-01 9.255835e-01 -3.979280e-01 3.459622e-01 1.239801e+00 -1.162902e+00 -1.313518e+00 5.939379e-02 -4.620188e-01 -2.278330e-01 1.654799e-03 -8.723804e-02 3.218387e-01 -1.667489e-01 2.501708e-01 1.230535e-01 -5.836249e-01 -2.397036e-01 1.042386e-02 -2.116748e-01 5.800909e-03 5.862513e-01 9.413007e-02 3.314669e-03
<VARIANCE> 39
 7.621157e+00 1.111705e+02 3.489865e+01 3.106639e+01 2.114147e+01 4.971418e+01 3.393019e+01 1.820064e+01 4.055420e+01 2.246683e+01 4.392164e+01 1.954442e+01 9.624872e-03 3.693546e-01 2.584840e+00 1.082444e+00 2.632627e+00 9.226361e-01 1.888035e+00 4.592632e+00 2.849103e+00 4.537242e+00 2.148899e+00 2.167345e+00 2.034275e+00 3.020534e-04 4.459940e-02 1.712146e-01 1.483683e-01 2.369363e-01 3.516987e-01 4.035929e-01 2.846185e-01 4.306393e-01 2.975632e-01 3.071195e-01 8.291495e-01 2.995181e-01 3.663543e-05
<GCONST> 8.122640e+01
<MIXTURE> 5 2.659217e-01
<MEAN> 39
 3.150152e+00 7.181889e+00 4.406390e+00 4.490949e+00 4.365842e-01 -2.903223e+00 -3.885710e+00 -3.997248e+00 -2.769397e+00 1.123288e-01 1.668750e-01 1.216816e+00 5.751311e-01 -1.838734e+00 -1.838089e+00 9.671373e-01 1.375174e+00 1.680040e+00 2.368594e+00 1.557550e+00 1.563953e+00 9.089221e-01 6.853225e-01 5.119480e-01 -2.540419e-01 -1.184418e-01 -5.068349e-01 -3.800041e-01 -4.807425e-01 -1.845287e-01 2.254312e-01 4.475352e-01 6.810314e-01 8.380564e-01 6.086934e-01 3.425285e-01 8.466850e-02 1.699132e-02 -1.319447e-02
<VARIANCE> 39
 1.413971e+01 4.416259e+01 1.871995e+01 2.357331e+01 2.123618e+01 2.332033e+01 3.374461e+01 2.828937e+01 2.867450e+01 2.916956e+01 3.990755e+01 3.033035e+01 1.183512e-02 1.007841e+00 1.223765e+00 1.497170e+00 1.569636e+00 1.609053e+00 2.008627e+00 1.850783e+00 3.342846e+00 3.172851e+00 3.419996e+00 3.643258e+00 2.582485e+00 1.516312e-03 2.378987e-01 2.499276e-01 2.249316e-01 2.638327e-01 3.410088e-01 3.370999e-01 4.566772e-01 5.100222e-01 4.619844e-01 6.564144e-01 5.678254e-01 5.017832e-01 2.430671e-04
<GCONST> 8.881732e+01
<MIXTURE> 6 7.690371e-02
<MEAN> 39
 -6.610716e-02 -3.580770e+00 5.116568e+00 -4.319488e+00 -1.175724e+01 -3.607639e+00 2.975356e+00 -1.672106e+00 -5.734034e-01 1.623894e+00 -1.299633e+00 -6.492551e-01 8.775626e-01 2.590457e+00 -2.720601e+00 -1.733247e+00 4.712748e+00 -9.268872e-01 -2.012931e+00 1.726157e+00 1.189929e+00 -2.333712e-01 -1.574907e-01 -8.036838e-02 -1.430144e-01 -9.358983e-03 1.996732e-01 9.273731e-01 -1.342708e+00 2.476095e-01 1.849417e+00 -1.037093e+00 -9.579961e-01 2.985803e-01 2.643517e-01 -2.137422e-01 -2.907312e-02 1.121769e-01 8.090487e-04
<VARIANCE> 39
 1.250140e+01 2.317500e+01 1.784499e+01 1.655852e+01 1.981723e+01 3.882998e+01 4.452617e+01 2.826778e+01 2.841640e+01 3.275931e+01 3.501036e+01 5.587243e+01 8.795977e-03 6.056985e-01 7.898571e-01 1.556648e+00 1.176957e+00 1.234597e+00 2.717741e+00 2.643739e+00 2.477622e+00 3.640254e+00 2.544875e+00 2.377392e+00 1.980774e+00 1.894359e-04 1.053718e-01 1.882920e-01 2.145180e-01 4.071732e-01 3.306521e-01 7.121205e-01 2.867017e-01 6.355849e-01 6.197046e-01 4.487550e-01 3.961718e-01 3.659210e-01 3.466013e-05
<GCONST> 8.167452e+01
<STATE> 15
<NUMMIXES> 6
<MIXTURE> 1 1.091753e-01
<MEAN> 39
 -1.716050e+00 4.541534e+00 5.688788e+00 4.804395e+00 1.597032e+00 2.629073e+00 -1.633266e+00 -1.143801e+00 -3.010789e+00 5.713215e-01 -1.132289e+00 1.688810e+00 3.277714e-01 -2.971351e+00 -2.736338e+00 2.343075e-01 1.471058e+00 2.136327e+00 3.300820e+00 2.850369e+00 3.679446e+00 2.090940e+00 1.761670e+00 9.489740e-01 -1.106143e-01 -1.199156e-01 -9.795576e-02 3.520275e-01 -6.063043e-01 -1.427812e-01 -8.981839e-03 -1.920519e-01 3.351774e-01 3.316857e-01 4.409805e-01 2.599223e-01 1.365800e-01 -8.620820e-02 2.873405e-02
<VARIANCE> 39
 1.800269e+01 2.561104e+01 1.584989e+01 1.342468e+01 1.153876e+01 2.719962e+01 2.675680e+01 2.329660e+01 2.094753e+01 2.434534e+01 3.373863e+01 2.245540e+01 1.768166e-02 1.056189e+00 2.137145e+00 1.439357e+00 1.440603e+00 1.786925e+00 1.185119e+00 2.399911e+00 3.437509e+00 3.498308e+00 3.680835e+00 3.962627e+00 4.220840e+00 3.219111e-03 2.242538e-01 3.865716e-01 2.557688e-01 3.006413e-01 1.796681e-01 3.072810e-01 3.603307e-01 4.079715e-01 4.400111e-01 3.968448e-01 3.077138e-01 3.597939e-01 4.538804e-04
<GCONST> 8.675364e+01
<MIXTURE> 2 1.934810e-01
<MEAN> 39
 -5.755006e+00 2.650999e+00 5.431821e+00 9.169933e+00 6.673962e+00 4.816287e+00 9.030186e-01 2.338328e+00 3.493317e-02 -8.062102e-01 1.612495e+00 -3.784188e-01 4.703369e-01 -2.560239e+00 -3.155373e+00 -1.228780e+00 4.433829e-01 4.718937e-01 1.560517e+00 1.261392e+00 1.462442e+00 1.327844e+00 1.440559e+00 1.326242e+00 1.700332e+00 -1.270165e-01 2.263028e-01 1.609180e-01 -5.588726e-01 -1.105989e+00 -7.809199e-01 -6.541946e-01 -1.562464e-01 -1.531663e-02 2.786139e-01 1.512020e-01 5.859100e-03 -3.439533e-02 7.881513e-03
<VARIANCE> 39
 2.189640e+01 3.567550e+01 1.148493e+01 1.923837e+01 2.259131e+01 2.721412e+01 3.226743e+01 3.793332e+01 3.985372e+01 3.920420e+01 3.406657e+01 3.203264e+01 1.082899e-02 9.933131e-01 1.011377e+00 2.215098e+00 2.222213e+00 2.773616e+00 4.124943e+00 2.787675e+00 3.305930e+00 2.125242e+00 2.785954e+00 2.575501e+00 3.177977e+00 9.202885e-04 1.726155e-01 3.247250e-01 2.457535e-01 3.601667e-01 2.757571e-01 3.592042e-01 4.898596e-01 4.386905e-01 5.309430e-01 7.673599e-01 4.755414e-01 4.207362e-01 3.057519e-04
<GCONST> 9.048167e+01
<MIXTURE> 3 1.985860e-01
<MEAN> 39
 -1.937900e+00 9.532400e+00 8.273626e-01 -1.197610e+00 2.466892e-01 1.790190e-01 -1.353289e+00 2.733292e+00 1.765507e+00 6.200257e-01 4.595627e+00 1.325702e+00 2.717470e-01 -1.874511e+00 -2.623989e+00 -7.954248e-01 2.665512e-01 -7.614627e-02 6.957358e-01 4.692053e-01 7.988788e-01 1.143003e+00 1.067033e+00 4.873368e-01 2.737018e-01 -1.099462e-01 1.112844e-03 -2.741890e-01 2.295258e-01 -8.543975e-02 -4.948069e-02 3.120454e-02 1.932326e-01 5.893936e-02 1.427047e-01 1.878830e-01 -2.869989e-01 -2.337559e-01 3.314206e-02
<VARIANCE> 39
 1.437957e+01 2.987898e+01 2.057383e+01 2.027529e+01 2.904716e+01 1.858941e+01 3.397049e+01 3.170385e+01 2.992141e+01 4.248135e+01 2.363109e+01 2.509938e+01 1.592181e-02 1.156659e+00 2.368170e+00 3.444613e+00 2.504852e+00 2.539402e+00 3.498153e+00 2.403830e+00 2.439350e+00 2.826103e+00 3.543069e+00 3.466841e+00 3.688695e+00 2.460552e-03 1.895472e-01 5.221822e-01 3.813250e-01 5.815883e-01 4.373447e-01 5.927050e-01 4.579801e-01 5.044821e-01 4.330829e-01 5.192496e-01 5.393180e-01 3.847128e-01 5.546015e-04
<GCONST> 9.520432e+01
<MIXTURE> 4 7.506999e-02
<MEAN> 39
 2.868323e+00 -5.735510e+00 1.296516e+00 1.545758e+00 -1.051490e+01 -9.764583e+00 4.662368e+00 2.537661e+00 -2.655744e+00 -3.321619e-01 5.841587e-01 -1.723285e-01 8.490439e-01 2.580223e+00 -1.287836e+00 -3.257006e+00 3.562254e+00 2.202583e+00 -2.696012e+00 -8.887165e-01 1.666089e+00 4.680761e-01 -5.704490e-01 -5.597232e-01 -5.202388e-02 -6.896728e-03 -1.244694e-01 1.094778e+00 -6.551859e-01 -1.118173e+00 1.726213e+00 3.079364e-01 -1.364561e+00 -4.250878e-01 4.785332e-01 2.505211e-01 -1.638127e-01 -1.821404e-01 2.949582e-03
<VARIANCE> 39
 1.256480e+01 2.019709e+01 2.188052e+01 1.141197e+01 2.498418e+01 3.012349e+01 4.034777e+01 3.447636e+01 2.969164e+01 4.515316e+01 2.759512e+01 5.385012e+01 1.328971e-02 6.459910e-01 5.810164e-01 9.363678e-01 1.731261e+00 1.873892e+00 2.268255e+00 2.438471e+00 2.674161e+00 3.326794e+00 2.155039e+00 2.385282e+00 2.128737e+00 1.919540e-04 8.306006e-02 2.134856e-01 3.097119e-01 3.367012e-01 3.032771e-01 6.151450e-01 4.088815e-01 5.761707e-01 4.856785e-01 6.576861e-01 3.708994e-01 3.462700e-01 9.568346e-05
<GCONST> 8.277507e+01
<MIXTURE> 5 1.704293e-01
<MEAN> 39
 2.265792e+00 4.071244e+00 5.483359e+00 6.277319e+00 3.505238e+00 -5.896152e-01 -1.477207e+00 -1.626176e+00 8.953323e-01 4.073613e-01 1.713498e+00 3.573627e-01 5.034547e-01 -1.431235e+00 -1.790665e+00 3.898997e-01 7.637396e-01 1.619854e+00 1.991230e+00 1.903753e+00 1.507748e+00 1.511714e+00 8.763323e-01 2.161280e-01 -1.152152e-01 -1.174971e-01 -5.585925e-02 -2.002482e-01 -4.403324e-01 -2.937658e-01 7.407790e-02 1.689990e-01 2.760003e-01 3.576881e-01 1.787964e-01 1.462346e-01 -1.580663e-01 2.109165e-02 -9.646077e-03
<VARIANCE> 39
